{"learner":{"attributes":{"scikit_learn":"{\"_estimator_type\": \"classifier\"}"},"feature_names":[],"feature_types":[],"gradient_booster":{"model":{"cats":{"enc":[],"feature_segments":[],"sorted_idx":[]},"gbtree_model_param":{"num_parallel_tree":"1","num_trees":"500"},"iteration_indptr":[0,1,2,3,4,5,6,7,8,9,10,11,12,13,14,15,16,17,18,19,20,21,22,23,24,25,26,27,28,29,30,31,32,33,34,35,36,37,38,39,40,41,42,43,44,45,46,47,48,49,50,51,52,53,54,55,56,57,58,59,60,61,62,63,64,65,66,67,68,69,70,71,72,73,74,75,76,77,78,79,80,81,82,83,84,85,86,87,88,89,90,91,92,93,94,95,96,97,98,99,100,101,102,103,104,105,106,107,108,109,110,111,112,113,114,115,116,117,118,119,120,121,122,123,124,125,126,127,128,129,130,131,132,133,134,135,136,137,138,139,140,141,142,143,144,145,146,147,148,149,150,151,152,153,154,155,156,157,158,159,160,161,162,163,164,165,166,167,168,169,170,171,172,173,174,175,176,177,178,179,180,181,182,183,184,185,186,187,188,189,190,191,192,193,194,195,196,197,198,199,200,201,202,203,204,205,206,207,208,209,210,211,212,213,214,215,216,217,218,219,220,221,222,223,224,225,226,227,228,229,230,231,232,233,234,235,236,237,238,239,240,241,242,243,244,245,246,247,248,249,250,251,252,253,254,255,256,257,258,259,260,261,262,263,264,265,266,267,268,269,270,271,272,273,274,275,276,277,278,279,280,281,282,283,284,285,286,287,288,289,290,291,292,293,294,295,296,297,298,299,300,301,302,303,304,305,306,307,308,309,310,311,312,313,314,315,316,317,318,319,320,321,322,323,324,325,326,327,328,329,330,331,332,333,334,335,336,337,338,339,340,341,342,343,344,345,346,347,348,349,350,351,352,353,354,355,356,357,358,359,360,361,362,363,364,365,366,367,368,369,370,371,372,373,374,375,376,377,378,379,380,381,382,383,384,385,386,387,388,389,390,391,392,393,394,395,396,397,398,399,400,401,402,403,404,405,406,407,408,409,410,411,412,413,414,415,416,417,418,419,420,421,422,423,424,425,426,427,428,429,430,431,432,433,434,435,436,437,438,439,440,441,442,443,444,445,446,447,448,449,450,451,452,453,454,455,456,457,458,459,460,461,462,463,464,465,466,467,468,469,470,471,472,473,474,475,476,477,478,479,480,481,482,483,484,485,486,487,488,489,490,491,492,493,494,495,496,497,498,499,500],"tree_info":[0,0,0,0,0,0,0,0,0,0,0,0,0,0,0,0,0,0,0,0,0,0,0,0,0,0,0,0,0,0,0,0,0,0,0,0,0,0,0,0,0,0,0,0,0,0,0,0,0,0,0,0,0,0,0,0,0,0,0,0,0,0,0,0,0,0,0,0,0,0,0,0,0,0,0,0,0,0,0,0,0,0,0,0,0,0,0,0,0,0,0,0,0,0,0,0,0,0,0,0,0,0,0,0,0,0,0,0,0,0,0,0,0,0,0,0,0,0,0,0,0,0,0,0,0,0,0,0,0,0,0,0,0,0,0,0,0,0,0,0,0,0,0,0,0,0,0,0,0,0,0,0,0,0,0,0,0,0,0,0,0,0,0,0,0,0,0,0,0,0,0,0,0,0,0,0,0,0,0,0,0,0,0,0,0,0,0,0,0,0,0,0,0,0,0,0,0,0,0,0,0,0,0,0,0,0,0,0,0,0,0,0,0,0,0,0,0,0,0,0,0,0,0,0,0,0,0,0,0,0,0,0,0,0,0,0,0,0,0,0,0,0,0,0,0,0,0,0,0,0,0,0,0,0,0,0,0,0,0,0,0,0,0,0,0,0,0,0,0,0,0,0,0,0,0,0,0,0,0,0,0,0,0,0,0,0,0,0,0,0,0,0,0,0,0,0,0,0,0,0,0,0,0,0,0,0,0,0,0,0,0,0,0,0,0,0,0,0,0,0,0,0,0,0,0,0,0,0,0,0,0,0,0,0,0,0,0,0,0,0,0,0,0,0,0,0,0,0,0,0,0,0,0,0,0,0,0,0,0,0,0,0,0,0,0,0,0,0,0,0,0,0,0,0,0,0,0,0,0,0,0,0,0,0,0,0,0,0,0,0,0,0,0,0,0,0,0,0,0,0,0,0,0,0,0,0,0,0,0,0,0,0,0,0,0,0,0,0,0,0,0,0,0,0,0,0,0,0,0,0,0,0,0,0,0,0,0,0,0,0,0,0,0,0,0,0,0,0,0,0,0,0,0,0,0,0,0,0,0,0,0,0,0,0,0,0,0,0,0,0,0,0,0,0,0,0,0,0,0,0,0,0,0,0,0,0,0,0,0,0,0,0,0,0,0,0,0,0,0,0],"trees":[{"base_weights":[-8.016804E-3,1.6706084E0,-1.748325E0,1.8735265E0,5.3062147E-1,-4.3136E-1,-1.9117612E0,-4.1428572E-1,1.8851211E0,1.3310492E0,-3.592417E-1,9.688889E-2,-1.7519553E0,-1.2104514E0,-1.9745518E0,-7.3750004E-2,3.6250003E-2,1.9398122E0,1.518417E0,1.5577937E0,-5.1111114E-1,1.3418182E0,-9.481013E-1,6.194357E-1,-1.1377778E0,-9.748503E-2,3.6250003E-2,-3.159091E-1,-1.8216867E0,3.6250003E-2,-1.9823761E0,1.944324E0,2.1111112E-2,1.7516966E0,7.475E-1,1.6632099E0,-7.3750004E-2,-8.8E-2,7.304348E-2,-3.4782607E-3,1.6439561E0,-2.0324324E-1,-9.688889E-2,8.7625897E-1,-1.0133333E0,6.883721E-1,-9.5625006E-2,-1.2415094E0,1.0216216E0,3.6250003E-2,-9.822785E-2,-9.6744186E-1,-1.9901835E0,9.804987E-2,8.1583336E-2,9.0085834E-2,4.820513E-2,-8.0000006E-2,5.3706296E-2,3.2982457E-2,9.0284094E-2,9.3731344E-2,4.2142857E-2,3.3153154E-2,-7.153846E-2,-7.666667E-2,5.1439393E-2,3.6250003E-2,-8.7272726E-2,8.0909096E-2,-1.12000005E-2,7.5675673E-3,-9.424658E-2,8.3921574E-2,-1.7777778E-2,-8.645161E-2,3.6250003E-2,-9.990541E-2,-7.448276E-2],"categories":[],"categories_nodes":[],"categories_segments":[],"categories_sizes":[],"default_left":[0,0,0,0,0,0,0,0,0,0,0,0,0,0,0,0,0,0,0,0,0,0,0,0,0,0,0,0,0,0,0,0,0,0,0,0,0,0,0,0,0,0,0,0,0,0,0,0,0,0,0,0,0,0,0,0,0,0,0,0,0,0,0,0,0,0,0,0,0,0,0,0,0,0,0,0,0,0,0],"id":0,"left_children":[1,3,5,7,9,11,13,15,17,19,21,23,25,27,29,-1,-1,31,33,35,37,39,41,43,45,-1,-1,47,49,-1,51,53,-1,55,57,59,-1,-1,-1,-1,61,63,-1,65,67,69,-1,71,73,-1,-1,75,77,-1,-1,-1,-1,-1,-1,-1,-1,-1,-1,-1,-1,-1,-1,-1,-1,-1,-1,-1,-1,-1,-1,-1,-1,-1,-1],"loss_changes":[8.347694E3,3.3522632E2,3.0092236E2,3.366797E1,1.5816537E2,1.0933573E2,5.2237305E1,9.603572E0,2.1342285E1,4.9667297E1,1.06910614E2,7.32347E1,2.3454819E1,5.6758926E1,2.5716309E1,0E0,0E0,6.234131E0,2.7979279E1,3.5801346E1,3.584864E1,1.1998688E1,5.762838E1,3.4316048E1,4.918704E1,0E0,0E0,5.5763176E1,2.4197647E1,0E0,6.815918E0,1.9750977E0,0E0,2.9206848E0,3.2336185E1,1.3039032E1,0E0,0E0,0E0,0E0,2.352188E0,5.0208332E1,0E0,2.7070526E1,1.5685044E1,9.621465E0,0E0,2.4207874E1,1.7463114E1,0E0,0E0,1.52101345E1,1.159668E0,0E0,0E0,0E0,0E0,0E0,0E0,0E0,0E0,0E0,0E0,0E0,0E0,0E0,0E0,0E0,0E0,0E0,0E0,0E0,0E0,0E0,0E0,0E0,0E0,0E0,0E0],"parents":[2147483647,0,0,1,1,2,2,3,3,4,4,5,5,6,6,7,7,8,8,9,9,10,10,11,11,12,12,13,13,14,14,17,17,18,18,19,19,20,20,21,21,22,22,23,23,24,24,27,27,28,28,30,30,31,31,33,33,34,34,35,35,40,40,41,41,43,43,44,44,45,45,47,47,48,48,51,51,52,52],"right_children":[2,4,6,8,10,12,14,16,18,20,22,24,26,28,30,-1,-1,32,34,36,38,40,42,44,46,-1,-1,48,50,-1,52,54,-1,56,58,60,-1,-1,-1,-1,62,64,-1,66,68,70,-1,72,74,-1,-1,76,78,-1,-1,-1,-1,-1,-1,-1,-1,-1,-1,-1,-1,-1,-1,-1,-1,-1,-1,-1,-1,-1,-1,-1,-1,-1,-1],"split_conditions":[1.2728853E0,1.0867507E1,8.210537E0,6.730594E-1,4.6732092E-1,1.6235195E1,5.366169E-1,5.912051E-2,7.0683724E-1,1.9815673E0,-8.0377E-3,6.668343E-2,1.151259E0,2.4362288E0,-1.4499661E-1,-7.3750004E-2,3.6250003E-2,2.792915E0,2.8760735E-2,2.0126513E-1,4.9590197E-1,3.7675673E-1,2.6107287E-2,2.5989866E0,1.2201872E0,-9.748503E-2,3.6250003E-2,1.4437349E-1,-2.0893471E-1,3.6250003E-2,-1.0396261E-1,1.0384924E0,2.1111112E-2,1.12984516E-1,3.084489E-1,2.7551836E-1,-7.3750004E-2,-8.8E-2,7.304348E-2,-3.4782607E-3,-2.5916528E-2,5.4356877E-2,-9.688889E-2,2.3778994E-1,-1.1268066E-1,-7.14425E-2,-9.5625006E-2,-2.5123289E-2,7.078675E-2,3.6250003E-2,-9.822785E-2,2.3515943E-1,4.216892E-1,9.804987E-2,8.1583336E-2,9.0085834E-2,4.820513E-2,-8.0000006E-2,5.3706296E-2,3.2982457E-2,9.0284094E-2,9.3731344E-2,4.2142857E-2,3.3153154E-2,-7.153846E-2,-7.666667E-2,5.1439393E-2,3.6250003E-2,-8.7272726E-2,8.0909096E-2,-1.12000005E-2,7.5675673E-3,-9.424658E-2,8.3921574E-2,-1.7777778E-2,-8.645161E-2,3.6250003E-2,-9.990541E-2,-7.448276E-2],"split_indices":[18,15,45,43,37,17,37,2,19,21,41,2,35,19,23,0,0,21,26,28,10,10,7,19,32,0,0,1,1,0,30,47,0,42,39,13,0,0,0,0,1,29,0,39,2,26,0,12,28,0,0,5,42,0,0,0,0,0,0,0,0,0,0,0,0,0,0,0,0,0,0,0,0,0,0,0,0,0,0],"split_type":[0,0,0,0,0,0,0,0,0,0,0,0,0,0,0,0,0,0,0,0,0,0,0,0,0,0,0,0,0,0,0,0,0,0,0,0,0,0,0,0,0,0,0,0,0,0,0,0,0,0,0,0,0,0,0,0,0,0,0,0,0,0,0,0,0,0,0,0,0,0,0,0,0,0,0,0,0,0,0],"sum_hessian":[2.8555E3,1.4535E3,1.402E3,1.23325E3,2.2025E2,1.5525E2,1.24675E3,6E0,1.22725E3,1.1575E2,1.045E2,1.115E2,4.375E1,1.0425E2,1.1425E3,3E0,3E0,1.064E3,1.6325E2,1.0325E2,1.25E1,2.65E1,7.8E1,7.875E1,3.275E1,4.075E1,3E0,4.3E1,6.125E1,3E0,1.1395E3,1.0605E3,3.5E0,1.2425E2,3.9E1,1.0025E2,3E0,7.75E0,4.75E0,4.75E0,2.175E1,4.525E1,3.275E1,6.85E1,1.025E1,9.75E0,2.3E1,2.55E1,1.75E1,3E0,5.825E1,9.75E0,1.12975E3,1.0015E3,5.9E1,1.155E2,8.75E0,4.25E0,3.475E1,1.325E1,8.7E1,1.575E1,6E0,2.675E1,1.85E1,3.5E0,6.5E1,3E0,7.25E0,4.5E0,5.25E0,8.25E0,1.725E1,1.175E1,5.75E0,6.75E0,3E0,1.109E3,2.075E1],"tree_param":{"num_deleted":"0","num_feature":"48","num_nodes":"79","size_leaf_vector":"1"}},{"base_weights":[-1.632928E-2,1.5125277E0,-1.7319292E0,1.7855488E0,3.4097525E-1,9.7255194E-1,-1.7748928E0,1.8007854E0,-6.778608E-1,7.203174E-1,-1.3846081E0,-7.3259234E-2,1.484956E0,-1.123394E0,-1.8671764E0,1.8461658E0,1.3419441E0,2.6555909E-2,-7.945404E-2,9.091794E-1,-9.058668E-2,5.9120663E-2,-1.6986086E0,8.774646E-2,1.5635207E-2,1.4330146E-1,-1.3518351E0,1.6565494E-2,-1.8746505E0,1.8495456E0,2.5342802E-2,1.4753908E0,3.9255553E-1,1.0061853E0,-8.5258074E-2,-9.436362E-2,3.0927602E-2,7.8500926E-1,-8.2768045E-2,-1.5018603E0,3.1956384E-1,-8.344267E-1,-1.8890464E0,9.329528E-2,7.527353E-2,4.8704874E-2,8.3442196E-2,8.1914656E-2,-8.483312E-2,5.775811E-2,-1.5439524E-2,-5.0358516E-3,8.133351E-2,-8.393694E-2,-0E0,6.3594006E-2,-7.414662E-2,-8.728426E-2,3.5586957E-2,-9.775594E-3,-9.4829425E-2],"categories":[],"categories_nodes":[],"categories_segments":[],"categories_sizes":[],"default_left":[0,0,0,0,0,0,0,0,0,0,0,0,0,0,0,0,0,0,0,0,0,0,0,0,0,0,0,0,0,0,0,0,0,0,0,0,0,0,0,0,0,0,0,0,0,0,0,0,0,0,0,0,0,0,0,0,0,0,0,0,0],"id":1,"left_children":[1,3,5,7,9,11,13,15,17,19,21,-1,23,25,27,29,31,-1,-1,33,-1,-1,35,-1,-1,37,39,-1,41,43,-1,45,47,49,-1,-1,-1,51,-1,53,55,57,59,-1,-1,-1,-1,-1,-1,-1,-1,-1,-1,-1,-1,-1,-1,-1,-1,-1,-1],"loss_changes":[7.518803E3,4.840078E2,1.5876465E2,4.746216E1,1.8930849E2,2.9324959E1,7.757129E1,2.2643066E1,1.0028368E1,1.1471219E2,4.410148E1,0E0,5.0958176E0,4.8833405E1,1.9892334E1,3.8461914E0,1.365387E1,0E0,0E0,5.7667892E1,0E0,0E0,2.1805145E1,0E0,0E0,3.1748352E1,3.62594E1,0E0,1.5517578E1,3.078125E0,0E0,7.7433624E0,4.3066273E1,4.229837E1,0E0,0E0,0E0,1.5388975E1,0E0,3.4864838E1,2.3293776E1,2.6306778E1,1.4018311E1,0E0,0E0,0E0,0E0,0E0,0E0,0E0,0E0,0E0,0E0,0E0,0E0,0E0,0E0,0E0,0E0,0E0,0E0],"parents":[2147483647,0,0,1,1,2,2,3,3,4,4,5,5,6,6,7,7,8,8,9,9,10,10,12,12,13,13,14,14,15,15,16,16,19,19,22,22,25,25,26,26,28,28,29,29,31,31,32,32,33,33,37,37,39,39,40,40,41,41,42,42],"right_children":[2,4,6,8,10,12,14,16,18,20,22,-1,24,26,28,30,32,-1,-1,34,-1,-1,36,-1,-1,38,40,-1,42,44,-1,46,48,50,-1,-1,-1,52,-1,54,56,58,60,-1,-1,-1,-1,-1,-1,-1,-1,-1,-1,-1,-1,-1,-1,-1,-1,-1,-1],"split_conditions":[1.4647149E0,1.0624377E1,8.5521036E-1,2.8260143E0,5.847627E-1,7.241522E-2,2.753269E1,9.164178E-1,-2.5781851E-2,1.7453614E0,8.231253E-1,-7.3259234E-2,4.5440104E-2,1.2065964E1,4.3701836E-1,2.3874071E-1,7.221281E-2,2.6555909E-2,-7.945404E-2,1.8232586E1,-9.058668E-2,5.9120663E-2,2.5449082E-1,8.774646E-2,1.5635207E-2,1.15793526E-1,2.5863728E-1,1.6565494E-2,4.5013812E-1,5.815503E-1,2.5342802E-2,9.4373786E-1,-6.374838E-2,1.3695009E-1,-8.5258074E-2,-9.436362E-2,3.0927602E-2,1.4127555E-1,-8.2768045E-2,1.6986504E0,2.452901E0,1.7434314E-1,3.8476966E-3,9.329528E-2,7.527353E-2,4.8704874E-2,8.3442196E-2,8.1914656E-2,-8.483312E-2,5.775811E-2,-1.5439524E-2,-5.0358516E-3,8.133351E-2,-8.393694E-2,-0E0,6.3594006E-2,-7.414662E-2,-8.728426E-2,3.5586957E-2,-9.775594E-3,-9.4829425E-2],"split_indices":[18,15,21,21,37,28,20,19,8,32,32,0,27,16,22,31,6,0,0,15,0,0,42,0,0,41,6,0,37,18,0,35,41,5,0,0,0,28,0,44,22,1,41,0,0,0,0,0,0,0,0,0,0,0,0,0,0,0,0,0,0],"split_type":[0,0,0,0,0,0,0,0,0,0,0,0,0,0,0,0,0,0,0,0,0,0,0,0,0,0,0,0,0,0,0,0,0,0,0,0,0,0,0,0,0,0,0,0,0,0,0,0,0,0,0,0,0,0,0,0,0,0,0,0,0],"sum_hessian":[2.8645847E3,1.5147633E3,1.3498214E3,1.2279823E3,2.86781E2,2.0733337E1,1.329088E3,1.2207413E3,7.240927E0,2.3562343E2,5.1157562E1,3.2442741E0,1.7489063E1,1.6667325E2,1.1624148E3,1.107924E3,1.1281739E2,3.24412E0,3.996807E0,2.199017E2,1.5721721E1,5.2394905E0,4.591807E1,1.3741898E1,3.7471645E0,2.5455982E1,1.4121727E2,3.746312E0,1.1586685E3,1.1046807E3,3.243349E0,9.833586E1,1.4481523E1,2.1266412E2,7.237583E0,4.2672356E1,3.245714E0,1.9218548E1,6.237435E0,1.2973363E2,1.1483652E1,1.6715883E1,1.1419526E3,1.0500398E3,5.464083E1,2.920623E1,6.912963E1,9.237299E0,5.2442236E0,1.9120015E2,2.1463976E1,9.73519E0,9.483357E0,1.16007225E2,1.3726392E1,7.7427616E0,3.7408905E0,1.0476827E1,6.239057E0,5.2412276E0,1.1367114E3],"tree_param":{"num_deleted":"0","num_feature":"48","num_nodes":"61","size_leaf_vector":"1"}},{"base_weights":[-3.1654153E-4,1.533207E0,-1.559532E0,1.7036562E0,5.3544736E-1,4.0961185E-1,-1.6925879E0,1.7641885E0,1.2549716E0,8.2709664E-1,-1.2615229E0,1.0031421E0,-1.1204414E0,-6.5002435E-1,-1.7566935E0,1.771239E0,-2.0307508E-4,1.5501267E0,5.3941023E-1,-6.877126E-1,1.1115363E0,6.723618E-2,-9.045383E-2,1.2390188E0,-7.7090815E-2,3.516214E-2,-8.9025386E-2,-1.5836124E0,2.0059483E-1,-1.3077388E0,-1.7936145E0,1.777696E0,8.703299E-1,-6.803976E-3,1.6318923E0,9.043256E-1,-8.347732E-2,4.8174575E-1,-8.914056E-2,1.2180532E0,-7.9734735E-2,1.4126933E0,-1.721142E-2,2.8297925E-2,-9.032587E-2,9.8601496E-1,-1.203014E0,3.471644E-2,-1.4572273E0,9.295131E-3,-1.8007538E0,8.9404635E-2,6.992527E-2,7.718454E-2,-0E0,8.4810786E-2,2.960143E-2,6.1860003E-2,-4.9099354E-3,-3.1157542E-2,7.701227E-2,6.44375E-2,-7.369163E-2,-0E0,7.699795E-2,7.121926E-2,-2.1044893E-2,-8.551144E-2,2.5846412E-2,1.2898398E-2,-8.119333E-2,-0E0,-9.041365E-2],"categories":[],"categories_nodes":[],"categories_segments":[],"categories_sizes":[],"default_left":[0,0,0,0,0,0,0,0,0,0,0,0,0,0,0,0,0,0,0,0,0,0,0,0,0,0,0,0,0,0,0,0,0,0,0,0,0,0,0,0,0,0,0,0,0,0,0,0,0,0,0,0,0,0,0,0,0,0,0,0,0,0,0,0,0,0,0,0,0,0,0,0,0],"id":2,"left_children":[1,3,5,7,9,11,13,15,17,19,21,23,25,27,29,31,-1,33,35,37,39,-1,-1,41,-1,-1,-1,43,45,47,49,51,53,-1,55,57,-1,59,-1,61,-1,63,-1,-1,-1,65,67,-1,69,-1,71,-1,-1,-1,-1,-1,-1,-1,-1,-1,-1,-1,-1,-1,-1,-1,-1,-1,-1,-1,-1,-1,-1],"loss_changes":[6.812604E3,2.4314478E2,3.7097754E2,3.0789062E1,1.11645325E2,8.300519E1,8.707886E1,1.3621582E1,3.0514862E1,7.935151E1,4.5046207E1,4.122824E1,3.221126E1,6.2675407E1,1.8002197E1,4.4333496E0,0E0,1.4870514E1,3.792476E1,3.8615696E1,4.6271378E1,0E0,0E0,1.7250359E1,0E0,0E0,0E0,1.9124878E1,4.7276535E1,3.0597153E1,1.6729248E1,1.3786621E0,5.7104897E0,0E0,5.484497E0,1.3430267E1,0E0,1.8537151E1,0E0,3.0176971E1,0E0,9.967598E0,0E0,0E0,0E0,1.7608267E1,1.4448992E1,0E0,2.6884216E1,0E0,1.560498E1,0E0,0E0,0E0,0E0,0E0,0E0,0E0,0E0,0E0,0E0,0E0,0E0,0E0,0E0,0E0,0E0,0E0,0E0,0E0,0E0,0E0,0E0],"parents":[2147483647,0,0,1,1,2,2,3,3,4,4,5,5,6,6,7,7,8,8,9,9,10,10,11,11,12,12,13,13,14,14,15,15,17,17,18,18,19,19,20,20,23,23,27,27,28,28,29,29,30,30,31,31,32,32,34,34,35,35,37,37,39,39,41,41,45,45,46,46,48,48,50,50],"right_children":[2,4,6,8,10,12,14,16,18,20,22,24,26,28,30,32,-1,34,36,38,40,-1,-1,42,-1,-1,-1,44,46,48,50,52,54,-1,56,58,-1,60,-1,62,-1,64,-1,-1,-1,66,68,-1,70,-1,72,-1,-1,-1,-1,-1,-1,-1,-1,-1,-1,-1,-1,-1,-1,-1,-1,-1,-1,-1,-1,-1,-1],"split_conditions":[1.3393377E1,1.9428158E1,1.1676624E0,9.37022E0,2.7355383E1,8.7616116E-2,7.2179375E0,1.7554072E-1,4.4650793E-1,8.612568E-1,-2.0983168E-1,1.5192556E-1,-3.453404E-2,1.3091202E0,5.366169E-1,1.344202E0,-2.0307508E-4,2.1679167E-1,1.4362357E0,3.5469435E-2,1.4231409E1,6.723618E-2,-9.045383E-2,1.6635796E-1,-7.7090815E-2,3.516214E-2,-8.9025386E-2,7.4182856E-3,2.2534172E-1,-9.2718676E-2,-1.3711286E-1,1.5163234E0,-8.7836444E-2,-6.803976E-3,3.528566E-2,5.4210067E0,-8.347732E-2,1.947099E-2,-8.914056E-2,2.0077108E-1,-7.9734735E-2,3.747294E-2,-1.721142E-2,2.8297925E-2,-9.032587E-2,1.2184577E-1,1.1061913E0,3.471644E-2,-4.8353374E-2,9.295131E-3,-1.3551712E-1,8.9404635E-2,6.992527E-2,7.718454E-2,-0E0,8.4810786E-2,2.960143E-2,6.1860003E-2,-4.9099354E-3,-3.1157542E-2,7.701227E-2,6.44375E-2,-7.369163E-2,-0E0,7.699795E-2,7.121926E-2,-2.1044893E-2,-8.551144E-2,2.5846412E-2,1.2898398E-2,-8.119333E-2,-0E0,-9.041365E-2],"split_indices":[15,20,22,15,20,5,45,25,37,43,2,12,26,44,37,47,0,13,44,12,16,0,0,31,0,0,0,41,3,6,23,22,12,0,6,45,0,12,0,24,0,40,0,0,0,41,43,0,5,0,26,0,0,0,0,0,0,0,0,0,0,0,0,0,0,0,0,0,0,0,0,0,0],"split_type":[0,0,0,0,0,0,0,0,0,0,0,0,0,0,0,0,0,0,0,0,0,0,0,0,0,0,0,0,0,0,0,0,0,0,0,0,0,0,0,0,0,0,0,0,0,0,0,0,0,0,0,0,0,0,0,0,0,0,0,0,0,0,0,0,0,0,0,0,0,0,0,0,0],"sum_hessian":[2.8471567E3,1.4353804E3,1.4117765E3,1.2252594E3,2.1012102E2,8.917729E1,1.3225991E3,1.076829E3,1.4843047E2,1.8129253E2,2.8828499E1,6.454793E1,2.462936E1,7.7349396E1,1.2452498E3,1.0726069E3,4.2219734E0,1.0416031E2,4.4270153E1,2.8380455E1,1.5291206E2,4.7206492E0,2.410785E1,5.9578407E1,4.9695187E0,6.4877024E0,1.8141659E1,3.6521477E1,4.082792E1,9.759815E1,1.1476516E3,1.0638976E3,8.709388E0,4.729952E0,9.943035E1,3.85394E1,5.730755E0,1.3950962E1,1.4429494E1,1.4768602E2,5.2260466E0,5.3842983E1,5.7354264E0,3.244611E0,3.3276867E1,2.6415375E1,1.4412543E1,6.48134E0,9.111681E1,3.9839258E0,1.1436677E3,1.0316332E3,3.2264366E1,4.48267E0,4.226718E0,9.295314E1,6.477216E0,2.8831844E1,9.707556E0,6.9808927E0,6.970069E0,1.4445071E2,3.235301E0,4.4870143E0,4.935597E1,2.0184793E1,6.2305818E0,1.117948E1,3.2330642E0,7.966854E0,8.3149956E1,4.727409E0,1.1389403E3],"tree_param":{"num_deleted":"0","num_feature":"48","num_nodes":"73","size_leaf_vector":"1"}},{"base_weights":[1.0791857E-2,1.4001185E0,-1.594614E0,1.6090051E0,1.3169841E-1,9.117775E-1,-1.6415461E0,1.6614385E0,6.4383554E-1,8.3837914E-1,-6.684159E-1,1.4443052E0,-5.137561E-1,-1.0222397E0,-1.7315656E0,1.6800417E0,9.129756E-1,-8.6538725E-2,1.0504488E0,9.881638E-1,-8.120101E-2,1.0604773E0,-1.0182805E0,8.3084516E-2,1.8535707E-2,2.475814E-2,-7.0995025E-2,-1.2734091E0,-5.2940506E-2,2.7093685E-1,-1.7460575E0,9.4561756E-1,1.6929089E0,-8.606041E-2,1.4859183E0,-8.005342E-1,1.384099E0,1.3374722E0,1.4452516E-1,7.832849E-2,-8.922241E-3,-6.631701E-2,-1.6159788E0,-5.956883E-1,-8.779524E-2,6.1300164E-1,-8.1380956E-2,7.791727E-2,-6.7875825E-2,-4.7006875E-1,-8.76872E-2,6.4967856E-2,-1.3886477E-2,8.482564E-2,1.7052924E-2,8.204128E-2,1.5489334E-2,2.9270565E-2,-8.0122285E-2,-1.5123661E-3,7.611822E-2,7.108382E-2,-4.889035E-4,4.1320913E-2,-8.6116515E-2,-8.655896E-2,3.303981E-2,2.0483825E-2,-8.907047E-2,-7.0992835E-2,9.593379E-3,5.48099E-2,-7.358994E-2,3.4373127E-2,-6.936102E-2],"categories":[],"categories_nodes":[],"categories_segments":[],"categories_sizes":[],"default_left":[0,0,0,0,0,0,0,0,0,0,0,0,0,0,0,0,0,0,0,0,0,0,0,0,0,0,0,0,0,0,0,0,0,0,0,0,0,0,0,0,0,0,0,0,0,0,0,0,0,0,0,0,0,0,0,0,0,0,0,0,0,0,0,0,0,0,0,0,0,0,0,0,0,0,0],"id":3,"left_children":[1,3,5,7,9,11,13,15,17,19,21,23,25,27,29,31,33,-1,35,37,-1,39,41,-1,-1,-1,-1,43,45,47,49,51,53,-1,55,57,59,61,63,-1,-1,65,67,69,-1,71,-1,-1,-1,73,-1,-1,-1,-1,-1,-1,-1,-1,-1,-1,-1,-1,-1,-1,-1,-1,-1,-1,-1,-1,-1,-1,-1,-1,-1],"loss_changes":[6.3370806E3,4.0317578E2,1.5661475E2,6.487378E1,1.2300468E2,1.9685095E1,7.0107666E1,1.546582E1,6.847638E1,4.413523E1,6.279635E1,3.472927E0,7.5971465E0,4.041652E1,3.3367188E1,9.552002E0,5.1405098E1,0E0,3.8012497E1,3.1933647E1,0E0,1.1463284E1,4.8329132E1,0E0,0E0,0E0,0E0,4.200444E1,3.828295E1,2.0843779E1,9.942383E0,1.05032215E1,4.9953613E0,0E0,4.2457466E0,1.1820126E1,1.01612015E1,8.918411E0,4.369187E1,0E0,0E0,4.2475574E1,1.8415878E1,3.716494E1,0E0,2.7366264E1,0E0,0E0,0E0,9.679497E0,0E0,0E0,0E0,0E0,0E0,0E0,0E0,0E0,0E0,0E0,0E0,0E0,0E0,0E0,0E0,0E0,0E0,0E0,0E0,0E0,0E0,0E0,0E0,0E0,0E0],"parents":[2147483647,0,0,1,1,2,2,3,3,4,4,5,5,6,6,7,7,8,8,9,9,10,10,11,11,12,12,13,13,14,14,15,15,16,16,18,18,19,19,21,21,22,22,27,27,28,28,29,29,30,30,31,31,32,32,34,34,35,35,36,36,37,37,38,38,41,41,42,42,43,43,45,45,49,49],"right_children":[2,4,6,8,10,12,14,16,18,20,22,24,26,28,30,32,34,-1,36,38,-1,40,42,-1,-1,-1,-1,44,46,48,50,52,54,-1,56,58,60,62,64,-1,-1,66,68,70,-1,72,-1,-1,-1,74,-1,-1,-1,-1,-1,-1,-1,-1,-1,-1,-1,-1,-1,-1,-1,-1,-1,-1,-1,-1,-1,-1,-1,-1,-1],"split_conditions":[1.4647149E0,7.70912E-1,9.21509E-1,1.3392428E1,1.3535938E0,1.7616974E0,1.6146133E1,6.6839595E0,2.5264704E-1,1.4009197E-1,1.6511925E1,1.1494261E0,3.0619597E-1,3.2783067E-1,8.894192E-2,6.7157364E-1,5.2064323E-1,-8.6538725E-2,3.8112158E-1,3.2716405E-2,-8.120101E-2,5.772146E-2,9.9130714E-1,8.3084516E-2,1.8535707E-2,2.475814E-2,-7.0995025E-2,1.3120855E-1,2.4362288E0,-3.5888042E-2,-7.694171E-2,1.8638198E-3,2.8260143E0,-8.606041E-2,8.5946983E-1,-1.5687416E-1,1.1598722E0,1.6053644E1,2.5017474E-2,7.832849E-2,-8.922241E-3,8.4439844E-1,3.1791633E-1,8.536827E-1,-8.779524E-2,3.6036342E-1,-8.1380956E-2,7.791727E-2,-6.7875825E-2,1.6729787E-1,-8.76872E-2,6.4967856E-2,-1.3886477E-2,8.482564E-2,1.7052924E-2,8.204128E-2,1.5489334E-2,2.9270565E-2,-8.0122285E-2,-1.5123661E-3,7.611822E-2,7.108382E-2,-4.889035E-4,4.1320913E-2,-8.6116515E-2,-8.655896E-2,3.303981E-2,2.0483825E-2,-8.907047E-2,-7.0992835E-2,9.593379E-3,5.48099E-2,-7.358994E-2,3.4373127E-2,-6.936102E-2],"split_indices":[18,18,21,16,32,18,17,45,13,6,20,19,10,13,3,35,36,0,10,26,0,26,47,0,0,0,0,41,19,12,29,24,21,0,47,1,44,16,11,0,0,47,35,35,0,10,0,0,0,14,0,0,0,0,0,0,0,0,0,0,0,0,0,0,0,0,0,0,0,0,0,0,0,0,0],"split_type":[0,0,0,0,0,0,0,0,0,0,0,0,0,0,0,0,0,0,0,0,0,0,0,0,0,0,0,0,0,0,0,0,0,0,0,0,0,0,0,0,0,0,0,0,0,0,0,0,0,0,0,0,0,0,0,0,0,0,0,0,0,0,0,0,0,0,0,0,0,0,0,0,0,0,0],"sum_hessian":[2.839196E3,1.5221284E3,1.3170677E3,1.306606E3,2.1552246E2,2.3830881E1,1.2932368E3,1.2384988E3,6.810721E1,1.14484276E2,1.01038185E2,1.7391157E1,6.439725E0,1.6583168E2,1.1274052E3,1.2071174E3,3.1381319E1,9.44517E0,5.8662033E1,1.0852231E2,5.961967E0,1.6615244E1,8.4422935E1,1.3929684E1,3.4614727E0,3.2094514E0,3.2302737E0,1.3137282E2,3.4458866E1,7.923612E0,1.1194816E3,2.2201103E1,1.1849163E3,5.216954E0,2.6164366E1,8.699729E0,4.9962307E1,7.624796E1,3.2274345E1,1.1666002E1,4.949242E0,3.3054607E1,5.136833E1,5.5649094E1,7.572372E1,2.4601807E1,9.85706E0,4.4835253E0,3.4400868E0,7.153352E0,1.1123282E3,1.7236622E1,4.9644823E0,1.1814377E3,3.4785724E0,2.2695086E1,3.4692786E0,3.2419455E0,5.4577837E0,4.4544783E0,4.5507828E1,7.17806E1,4.467367E0,2.4087105E1,8.18724E0,9.669989E0,2.338462E1,3.7212818E0,4.7647045E1,2.6862206E1,2.8786888E1,2.0396622E1,4.205185E0,3.224781E0,3.9285707E0],"tree_param":{"num_deleted":"0","num_feature":"48","num_nodes":"75","size_leaf_vector":"1"}},{"base_weights":[1.0971191E-2,1.4415975E0,-1.3991797E0,1.5600882E0,1.9040753E-1,-3.844112E-1,-1.6407701E0,1.6147257E0,9.312902E-1,9.8370594E-1,-6.143701E-1,9.036459E-2,-1.2745836E0,-1.6611644E0,-1.4184207E-1,8.689547E-1,1.634024E0,1.1838044E0,-8.714948E-2,1.139463E0,-6.9759905E-2,3.0998543E-1,-8.677752E-2,1.1947514E0,-2.0825166E-1,-1.493421E0,5.946813E-2,1.3459789E-2,-1.6682755E0,8.517177E-1,-7.531714E-2,1.3758588E0,-8.315095E-2,1.6399089E0,9.938452E-4,1.3307406E0,-8.0456376E-2,-4.7671642E-2,1.3403813E0,8.45553E-1,-7.8811236E-2,1.4372517E0,-1.4224744E-2,-1.0494072E0,2.2306775E-1,-1.5868179E0,2.8642703E-2,1.089017E0,-7.360115E-2,-1.3315464E-2,-1.675345E0,-1.3297999E-3,8.088359E-2,7.450839E-2,1.8394968E-2,8.217942E-2,1.5573076E-2,-2.1617224E-2,7.238638E-2,5.567658E-2,-7.953316E-2,7.377606E-2,-9.971925E-4,-1.5491418E-2,5.6644775E-2,7.889394E-2,1.1101633E-2,2.0164719E-2,-7.418001E-2,2.2353662E-2,-8.164499E-2,2.4519421E-2,-8.452632E-2,1.5143804E-2,7.719705E-2,-8.414682E-2,-6.1905798E-2],"categories":[],"categories_nodes":[],"categories_segments":[],"categories_sizes":[],"default_left":[0,0,0,0,0,0,0,0,0,0,0,0,0,0,0,0,0,0,0,0,0,0,0,0,0,0,0,0,0,0,0,0,0,0,0,0,0,0,0,0,0,0,0,0,0,0,0,0,0,0,0,0,0,0,0,0,0,0,0,0,0,0,0,0,0,0,0,0,0,0,0,0,0,0,0,0,0],"id":4,"left_children":[1,3,5,7,9,11,13,15,17,19,21,23,25,27,29,31,33,35,-1,37,-1,39,-1,41,43,45,47,-1,49,51,-1,53,-1,55,-1,57,-1,59,61,63,-1,65,-1,67,69,71,-1,73,-1,-1,75,-1,-1,-1,-1,-1,-1,-1,-1,-1,-1,-1,-1,-1,-1,-1,-1,-1,-1,-1,-1,-1,-1,-1,-1,-1,-1],"loss_changes":[5.6691465E3,2.0633789E2,3.4610425E2,4.201367E1,7.845946E1,1.1582862E2,3.4514893E1,1.5178955E1,7.248484E1,2.4474083E1,6.3961533E1,5.9457226E1,2.8047226E1,1.6061035E1,2.3713932E1,4.3069637E1,1.0629395E1,4.15065E1,0E0,1.4175102E1,0E0,3.5876358E1,0E0,1.4287582E1,5.1787148E1,1.6825897E1,2.414992E1,0E0,1.0491943E1,7.025527E0,0E0,2.3852959E0,0E0,4.843506E0,0E0,1.9656723E1,0E0,1.8623207E1,9.411095E0,9.523663E0,0E0,5.141197E0,0E0,3.1197815E1,3.9910324E1,1.7907196E1,0E0,2.6305876E0,0E0,0E0,1.3330078E0,0E0,0E0,0E0,0E0,0E0,0E0,0E0,0E0,0E0,0E0,0E0,0E0,0E0,0E0,0E0,0E0,0E0,0E0,0E0,0E0,0E0,0E0,0E0,0E0,0E0,0E0],"parents":[2147483647,0,0,1,1,2,2,3,3,4,4,5,5,6,6,7,7,8,8,9,9,10,10,11,11,12,12,13,13,14,14,15,15,16,16,17,17,19,19,21,21,23,23,24,24,25,25,26,26,28,28,29,29,31,31,33,33,35,35,37,37,38,38,39,39,41,41,43,43,44,44,45,45,47,47,50,50],"right_children":[2,4,6,8,10,12,14,16,18,20,22,24,26,28,30,32,34,36,-1,38,-1,40,-1,42,44,46,48,-1,50,52,-1,54,-1,56,-1,58,-1,60,62,64,-1,66,-1,68,70,72,-1,74,-1,-1,76,-1,-1,-1,-1,-1,-1,-1,-1,-1,-1,-1,-1,-1,-1,-1,-1,-1,-1,-1,-1,-1,-1,-1,-1,-1,-1],"split_conditions":[1.1371403E0,1.760335E0,1.6235195E1,1.0152825E0,1.0969737E1,2.753269E1,1.0359049E0,8.562487E-1,1.0256615E-1,3.1247737E0,3.215514E-2,9.21509E-1,3.300995E-1,-2.9413837E-1,3.024955E-1,4.3506706E-1,2.7355383E1,5.842078E0,-8.714948E-2,1.3825008E-1,-6.9759905E-2,1.384213E0,-8.677752E-2,8.744516E-2,3.2859135E-1,5.3240204E-1,1.0903144E0,1.3459789E-2,-1.008928E-1,1.9838648E1,-7.531714E-2,7.955657E-2,-8.315095E-2,2.3489454E0,9.938452E-4,5.6918472E-2,-8.0456376E-2,3.237124E-2,8.77555E-1,-2.9371748E-2,-7.8811236E-2,1.2840198E-1,-1.4224744E-2,1.3431077E0,1.9557506E-1,-8.436186E-2,2.8642703E-2,2.2576356E-1,-7.360115E-2,-1.3315464E-2,4.216892E-1,-1.3297999E-3,8.088359E-2,7.450839E-2,1.8394968E-2,8.217942E-2,1.5573076E-2,-2.1617224E-2,7.238638E-2,5.567658E-2,-7.953316E-2,7.377606E-2,-9.971925E-4,-1.5491418E-2,5.6644775E-2,7.889394E-2,1.1101633E-2,2.0164719E-2,-7.418001E-2,2.2353662E-2,-8.164499E-2,2.4519421E-2,-8.452632E-2,1.5143804E-2,7.719705E-2,-8.414682E-2,-6.1905798E-2],"split_indices":[18,21,17,47,17,20,35,43,42,21,24,21,13,1,10,37,20,45,0,4,0,32,0,27,39,10,44,0,5,17,0,25,0,19,0,40,0,34,18,24,0,26,0,18,25,26,0,31,0,0,42,0,0,0,0,0,0,0,0,0,0,0,0,0,0,0,0,0,0,0,0,0,0,0,0,0,0],"split_type":[0,0,0,0,0,0,0,0,0,0,0,0,0,0,0,0,0,0,0,0,0,0,0,0,0,0,0,0,0,0,0,0,0,0,0,0,0,0,0,0,0,0,0,0,0,0,0,0,0,0,0,0,0,0,0,0,0,0,0,0,0,0,0,0,0,0,0,0,0,0,0,0,0,0,0,0,0],"sum_hessian":[2.8081245E3,1.3939663E3,1.4141581E3,1.2730762E3,1.2089012E2,2.725121E2,1.1416461E3,1.1697107E3,1.03365555E2,6.0829853E1,6.0060265E1,1.7823573E2,9.4276344E1,1.1261488E3,1.5497217E1,3.0796883E1,1.1389138E3,9.499093E1,8.374621E0,5.7620262E1,3.2095945E0,3.326736E1,2.67929E1,3.7368378E1,1.4086736E2,8.095243E1,1.33239155E1,3.9464133E0,1.1222024E3,9.142575E0,6.3546414E0,2.6073116E1,4.723767E0,1.134699E3,4.2148376E0,9.077461E1,4.2163153E0,8.378796E0,4.9241463E1,2.6381403E1,6.8859596E0,3.218768E1,5.1806974E0,4.734139E1,9.3525955E1,7.771988E1,3.2325516E0,8.179463E0,5.144453E0,5.8954015E0,1.116307E3,4.6477532E0,4.494822E0,2.2898655E1,3.174461E0,1.1312533E3,3.4456758E0,5.427502E0,8.5347115E1,4.9027057E0,3.47609E0,4.478152E1,4.4599423E0,5.1693964E0,2.1212008E1,2.8507973E1,3.679708E0,1.0857097E1,3.6484295E1,8.417899E1,9.346965E0,3.472643E0,7.424724E1,3.689439E0,4.4900236E0,1.0942305E3,2.20765E1],"tree_param":{"num_deleted":"0","num_feature":"48","num_nodes":"77","size_leaf_vector":"1"}},{"base_weights":[3.7295318E-3,1.4241363E0,-1.3685026E0,1.5426346E0,5.194786E-1,-4.0838218E-1,-1.6094229E0,1.5527704E0,-2.5120271E-2,1.054283E0,-5.539877E-1,3.3532065E-1,-9.5208526E-1,2.7483953E-2,-1.6161243E0,1.5601127E0,-8.513267E-3,1.2491138E0,-4.664871E-1,6.514217E-1,-1.2460616E0,6.6354424E-1,-8.517751E-2,9.0510255E-1,-1.1026397E0,-2.2815226E-4,-1.6231046E0,1.5965817E0,1.2709774E0,2.0843028E-1,1.4367161E0,7.1694605E-2,-8.256386E-2,-2.2543713E-1,7.35828E-2,-8.533939E-2,2.724329E-1,-8.267855E-2,9.02779E-1,8.0854036E-2,-6.2367558E-3,6.1447966E-1,-1.2718205E0,-1.630018E0,-4.1598666E-1,8.00017E-2,1.5237147E-2,7.170387E-2,2.5458923E-2,5.414573E-2,-8.091763E-2,7.699901E-2,1.6175313E-2,6.1043676E-2,-7.837369E-2,-6.291332E-2,6.768118E-2,5.531604E-2,-2.1286545E-2,6.879162E-2,-6.844678E-2,-7.631611E-2,-2.0898907E-2,-6.0470846E-2,-8.181272E-2,-6.464385E-2,3.1075528E-2],"categories":[],"categories_nodes":[],"categories_segments":[],"categories_sizes":[],"default_left":[0,0,0,0,0,0,0,0,0,0,0,0,0,0,0,0,0,0,0,0,0,0,0,0,0,0,0,0,0,0,0,0,0,0,0,0,0,0,0,0,0,0,0,0,0,0,0,0,0,0,0,0,0,0,0,0,0,0,0,0,0,0,0,0,0,0,0],"id":5,"left_children":[1,3,5,7,9,11,13,15,-1,17,19,21,23,-1,25,27,-1,29,31,33,35,37,-1,39,41,-1,43,45,47,49,51,-1,-1,53,-1,-1,55,-1,57,-1,-1,59,61,63,65,-1,-1,-1,-1,-1,-1,-1,-1,-1,-1,-1,-1,-1,-1,-1,-1,-1,-1,-1,-1,-1,-1],"loss_changes":[5.402058E3,1.4498755E2,3.2520654E2,2.5832275E1,9.21074E1,1.1529237E2,1.7293457E1,1.5560059E1,0E0,3.2292397E1,4.5567356E1,8.1786385E1,4.7014694E1,0E0,1.246582E1,1.0263428E1,0E0,1.8076218E1,3.1194946E1,1.49456215E1,2.4697487E1,5.946135E1,0E0,9.761939E0,4.5198456E1,0E0,8.450195E0,4.027588E0,1.6325012E1,2.6868118E1,8.535797E0,0E0,0E0,2.241602E1,0E0,0E0,1.6321234E1,0E0,2.6388779E1,0E0,0E0,2.349951E1,2.9450241E1,6.525879E-1,7.9610534E0,0E0,0E0,0E0,0E0,0E0,0E0,0E0,0E0,0E0,0E0,0E0,0E0,0E0,0E0,0E0,0E0,0E0,0E0,0E0,0E0,0E0,0E0],"parents":[2147483647,0,0,1,1,2,2,3,3,4,4,5,5,6,6,7,7,9,9,10,10,11,11,12,12,14,14,15,15,17,17,18,18,19,19,20,20,21,21,23,23,24,24,26,26,27,27,28,28,29,29,30,30,33,33,36,36,38,38,41,41,42,42,43,43,44,44],"right_children":[2,4,6,8,10,12,14,16,-1,18,20,22,24,-1,26,28,-1,30,32,34,36,38,-1,40,42,-1,44,46,48,50,52,-1,-1,54,-1,-1,56,-1,58,-1,-1,60,62,64,66,-1,-1,-1,-1,-1,-1,-1,-1,-1,-1,-1,-1,-1,-1,-1,-1,-1,-1,-1,-1,-1,-1],"split_conditions":[1.0299646E0,1.0867507E1,2.753269E1,1.7728218E-1,1.7001684E0,1.4035032E1,-1.4499661E-1,2.8260143E0,-2.5120271E-2,5.16276E-1,8.4439844E-1,1.00516E-1,2.376053E-2,2.7483953E-2,-1.4694919E-1,7.0683724E-1,-8.513267E-3,2.7551836E-1,-1.1945015E-1,1.8478167E-1,2.1178127E1,4.482483E-2,-8.517751E-2,4.6514515E-2,8.4844565E-1,-2.2815226E-4,5.3240204E-1,2.0729652E-1,2.8760735E-2,2.068648E-2,7.096467E-2,7.1694605E-2,-8.256386E-2,8.133357E-2,7.35828E-2,-8.533939E-2,1.4079937E0,-8.267855E-2,1.3476118E-1,8.0854036E-2,-6.2367558E-3,8.069062E-1,2.6634323E1,1.4950798E0,1.9112451E-1,8.00017E-2,1.5237147E-2,7.170387E-2,2.5458923E-2,5.414573E-2,-8.091763E-2,7.699901E-2,1.6175313E-2,6.1043676E-2,-7.837369E-2,-6.291332E-2,6.768118E-2,5.531604E-2,-2.1286545E-2,6.879162E-2,-6.844678E-2,-7.631611E-2,-2.0898907E-2,-6.0470846E-2,-8.181272E-2,-6.464385E-2,3.1075528E-2],"split_indices":[18,15,20,25,21,15,23,21,0,37,47,6,31,0,25,19,0,13,12,28,16,40,0,42,19,0,10,27,26,26,1,0,0,3,0,0,38,0,30,0,0,35,20,19,25,0,0,0,0,0,0,0,0,0,0,0,0,0,0,0,0,0,0,0,0,0,0],"split_type":[0,0,0,0,0,0,0,0,0,0,0,0,0,0,0,0,0,0,0,0,0,0,0,0,0,0,0,0,0,0,0,0,0,0,0,0,0,0,0,0,0,0,0,0,0,0,0,0,0,0,0,0,0,0,0,0,0,0,0,0,0,0,0,0,0,0,0],"sum_hessian":[2.7695232E3,1.3608909E3,1.4086323E3,1.202556E3,1.5833493E2,2.831856E2,1.1254467E3,1.1969135E3,5.642574E0,1.0575732E2,5.2577614E1,1.19680405E2,1.6350519E2,3.1854377E0,1.1222612E3,1.1919866E3,4.926793E0,9.396371E1,1.1793609E1,1.9145489E1,3.3432125E1,1.0370867E2,1.5971737E1,1.1835127E1,1.5167006E2,4.9089313E0,1.1173523E3,1.0541566E3,1.3782994E2,1.4755391E1,7.920832E1,4.415916E0,7.377692E0,9.544899E0,9.60059E0,2.5605131E1,7.826995E0,9.113142E0,9.459553E1,6.7177114E0,5.117415E0,1.3314085E1,1.3835597E2,1.1105587E3,6.793585E0,1.051032E3,3.1246655E0,1.1268953E2,2.5140415E1,1.0291008E1,4.4643826E0,7.2051445E1,7.1568727E0,4.6015677E0,4.9433317E0,3.1338983E0,4.6930966E0,8.223827E1,1.2357254E1,9.878774E0,3.4353113E0,1.0588925E2,3.2466724E1,1.9307968E1,1.0912507E3,3.6006007E0,3.1929843E0],"tree_param":{"num_deleted":"0","num_feature":"48","num_nodes":"67","size_leaf_vector":"1"}},{"base_weights":[5.117154E-3,1.2607853E0,-1.4279573E0,1.4158185E0,-5.008163E-2,-5.539304E-1,-1.5337125E0,1.4329904E0,-7.499871E-2,4.5494547E-1,-1.2888564E0,2.1877797E-2,-1.4299474E0,5.015064E-1,-1.5529801E0,1.5347823E0,1.036654E0,7.225748E-1,-7.721548E-2,-8.118117E-2,1.7440842E-2,-7.562021E-2,2.9662997E-1,-7.968615E-2,4.949504E-2,6.833343E-2,-6.527077E-2,2.3304274E-2,-1.5597515E0,1.5399573E0,2.6973463E-3,1.0896447E0,-7.820869E-2,9.193196E-1,-7.8126274E-2,6.762861E-2,-6.935903E-2,5.209188E-1,-7.293478E-2,-8.3497155E-1,-1.5736223E0,7.71796E-2,3.3917263E-2,5.639748E-2,-6.815969E-2,5.1416166E-2,-6.5203086E-2,3.824561E-2,-4.029817E-2,6.341841E-2,-7.603338E-2,-2.3668172E-2,-7.906655E-2],"categories":[],"categories_nodes":[],"categories_segments":[],"categories_sizes":[],"default_left":[0,0,0,0,0,0,0,0,0,0,0,0,0,0,0,0,0,0,0,0,0,0,0,0,0,0,0,0,0,0,0,0,0,0,0,0,0,0,0,0,0,0,0,0,0,0,0,0,0,0,0,0,0],"id":6,"left_children":[1,3,5,7,9,11,13,15,-1,17,19,21,23,25,27,29,31,33,-1,-1,35,-1,37,-1,-1,-1,-1,-1,39,41,-1,43,-1,45,-1,-1,-1,47,-1,49,51,-1,-1,-1,-1,-1,-1,-1,-1,-1,-1,-1,-1],"loss_changes":[4.8633276E3,2.9296216E2,1.1560449E2,6.664722E1,9.6543526E1,6.973064E1,4.50083E1,4.9843506E1,0E0,5.9647667E1,1.973674E1,3.5788773E1,2.3346375E1,1.9392696E1,1.6080566E1,7.5527344E0,3.8194275E1,4.513394E1,0E0,0E0,2.0714638E1,0E0,2.910605E1,0E0,0E0,0E0,0E0,0E0,9.619873E0,1.9047852E0,0E0,2.5984344E1,0E0,2.319638E1,0E0,0E0,0E0,2.1604563E1,0E0,3.5325794E1,8.2854E0,0E0,0E0,0E0,0E0,0E0,0E0,0E0,0E0,0E0,0E0,0E0,0E0],"parents":[2147483647,0,0,1,1,2,2,3,3,4,4,5,5,6,6,7,7,9,9,10,10,11,11,12,12,13,13,14,14,15,15,16,16,17,17,20,20,22,22,28,28,29,29,31,31,33,33,37,37,39,39,40,40],"right_children":[2,4,6,8,10,12,14,16,-1,18,20,22,24,26,28,30,32,34,-1,-1,36,-1,38,-1,-1,-1,-1,-1,40,42,-1,44,-1,46,-1,-1,-1,48,-1,50,52,-1,-1,-1,-1,-1,-1,-1,-1,-1,-1,-1,-1],"split_conditions":[1.4647149E0,1.3996012E1,2.1828973E0,2.93511E1,2.1651952E0,5.847627E-1,9.712979E0,3.241172E-1,-7.499871E-2,5.99155E-1,1.1765516E0,5.8572894E-1,2.7140354E1,-2.7068794E-2,-1.4499661E-1,1.8817385E0,2.0553935E-1,1.124952E-1,-7.721548E-2,-8.118117E-2,1.1890538E0,-7.562021E-2,1.4912323E0,-7.968615E-2,4.949504E-2,6.833343E-2,-6.527077E-2,2.3304274E-2,1.24007024E-1,2.1125382E-1,2.6973463E-3,1.1075185E1,-7.820869E-2,2.031587E-1,-7.8126274E-2,6.762861E-2,-6.935903E-2,3.1706554E-1,-7.293478E-2,-7.114771E-2,-1.0396261E-1,7.71796E-2,3.3917263E-2,5.639748E-2,-6.815969E-2,5.1416166E-2,-6.5203086E-2,3.824561E-2,-4.029817E-2,6.341841E-2,-7.603338E-2,-2.3668172E-2,-7.906655E-2],"split_indices":[18,16,19,20,22,37,16,18,0,37,43,35,17,5,23,19,26,6,0,0,43,0,47,0,0,0,0,0,3,28,0,45,0,29,0,0,0,3,0,0,30,0,0,0,0,0,0,0,0,0,0,0,0],"split_type":[0,0,0,0,0,0,0,0,0,0,0,0,0,0,0,0,0,0,0,0,0,0,0,0,0,0,0,0,0,0,0,0,0,0,0,0,0,0,0,0,0,0,0,0,0,0,0,0,0,0,0,0,0],"sum_hessian":[2.7006592E3,1.4395271E3,1.2611321E3,1.2872799E3,1.5224728E2,1.368987E2,1.1242333E3,1.2802827E3,6.9971666E0,1.0854669E2,4.3700596E1,8.3122765E1,5.3775932E1,1.0259976E1,1.1139734E3,1.0161725E3,2.6411023E2,9.633892E1,1.2207767E1,3.465351E1,9.047084E0,1.1885076E1,7.123769E1,5.072554E1,3.0503902E0,7.140205E0,3.1197715E0,3.447449E0,1.1105259E3,1.01252655E3,3.6458912E0,2.594437E2,4.666554E0,8.929239E1,7.0465336E0,4.693773E0,4.353311E0,6.3840588E1,7.397102E0,2.2138668E1,1.0883872E3,1.0073694E3,5.157208E0,2.5602634E2,3.4173415E0,8.5674576E1,3.6178162E0,5.4346066E1,9.494523E0,5.1981144E0,1.6940554E1,8.096835E0,1.0802904E3],"tree_param":{"num_deleted":"0","num_feature":"48","num_nodes":"53","size_leaf_vector":"1"}},{"base_weights":[-6.2791286E-3,1.2380935E0,-1.3525895E0,1.4368132E0,2.5815454E-1,-2.0098393E-1,-1.4799334E0,1.4851669E0,9.46172E-1,7.3158604E-1,-5.593198E-1,-1.4182847E0,2.668228E-1,3.191301E-2,-1.4929405E0,4.2290363E-1,1.4935689E0,1.1689415E0,2.0787226E-1,9.091799E-1,-7.060136E-1,1.156555E0,-8.7658906E-1,2.0381514E-2,-8.0370896E-2,7.597896E-1,-6.9423056E-1,-6.9750875E-1,-1.5173098E0,-2.0077113E-2,6.2068015E-2,1.4978808E0,5.1457155E-3,-1.3251296E-2,1.2541779E0,-7.902109E-2,7.3595E-1,9.852046E-1,-7.4423134E-2,5.5225044E-2,-7.729E-2,7.548791E-2,7.932652E-3,-1.0602874E0,5.94892E-2,9.922742E-1,-7.25972E-2,2.9888728E-1,-7.809823E-2,-1.0590851E0,5.410189E-2,3.1095743E-2,-1.524146E0,7.515601E-2,3.4714103E-2,6.716933E-2,1.3618082E-2,6.417894E-2,-2.7847802E-2,5.3301007E-2,-2.3943337E-2,-6.293158E-2,4.3161128E-2,-3.7601233E-2,6.366261E-2,-6.652386E-2,4.6997853E-2,2.13797E-2,-7.641841E-2,-1.0287578E-2,-7.655239E-2],"categories":[],"categories_nodes":[],"categories_segments":[],"categories_sizes":[],"default_left":[0,0,0,0,0,0,0,0,0,0,0,0,0,0,0,0,0,0,0,0,0,0,0,0,0,0,0,0,0,0,0,0,0,0,0,0,0,0,0,0,0,0,0,0,0,0,0,0,0,0,0,0,0,0,0,0,0,0,0,0,0,0,0,0,0,0,0,0,0,0,0],"id":7,"left_children":[1,3,5,7,9,11,13,15,17,19,21,23,25,-1,27,29,31,33,35,37,39,41,43,-1,-1,45,47,49,51,-1,-1,53,-1,-1,55,-1,57,59,-1,-1,-1,-1,-1,61,-1,63,-1,65,-1,67,-1,-1,69,-1,-1,-1,-1,-1,-1,-1,-1,-1,-1,-1,-1,-1,-1,-1,-1,-1,-1],"loss_changes":[4.4432056E3,2.6784497E2,1.8635742E2,2.5529053E1,9.086077E1,7.343031E1,3.263623E1,8.466064E0,1.7005447E1,3.8571358E1,4.7905045E1,1.3129562E1,4.4739307E1,0E0,2.0821777E1,7.098241E0,5.8754883E0,1.0317749E1,2.5464935E1,2.5596733E1,2.7336063E1,4.468601E0,2.9093296E1,0E0,0E0,3.338686E1,2.8245323E1,2.4221504E1,1.7203125E1,0E0,0E0,3.0683594E0,0E0,0E0,6.180649E0,0E0,1.5416585E1,1.5858643E1,0E0,0E0,0E0,0E0,0E0,2.7046036E1,0E0,2.891401E1,0E0,1.766149E1,0E0,2.1945972E1,0E0,0E0,9.540283E0,0E0,0E0,0E0,0E0,0E0,0E0,0E0,0E0,0E0,0E0,0E0,0E0,0E0,0E0,0E0,0E0,0E0,0E0],"parents":[2147483647,0,0,1,1,2,2,3,3,4,4,5,5,6,6,7,7,8,8,9,9,10,10,11,11,12,12,14,14,15,15,16,16,17,17,18,18,19,19,20,20,21,21,22,22,25,25,26,26,27,27,28,28,31,31,34,34,36,36,37,37,43,43,45,45,47,47,49,49,52,52],"right_children":[2,4,6,8,10,12,14,16,18,20,22,24,26,-1,28,30,32,34,36,38,40,42,44,-1,-1,46,48,50,52,-1,-1,54,-1,-1,56,-1,58,60,-1,-1,-1,-1,-1,62,-1,64,-1,66,-1,68,-1,-1,70,-1,-1,-1,-1,-1,-1,-1,-1,-1,-1,-1,-1,-1,-1,-1,-1,-1,-1],"split_conditions":[1.758327E0,1.0624377E1,1.3924076E1,5.815503E-1,1.3687431E0,2.2315297E-1,-1.4499661E-1,6.751938E-1,5.7162922E-2,5.99155E-1,-1.0171076E-1,3.8636672E-1,8.722565E-2,3.191301E-2,1.3176955E0,4.0975395E-1,1.2919899E0,3.97382E-2,3.805479E-1,1.7546135E-1,8.231253E-1,4.6514515E-2,2.8134683E-1,2.0381514E-2,-8.0370896E-2,1.763254E-1,1.9333254E0,1.3039534E0,-3.2735446E-1,-2.0077113E-2,6.2068015E-2,1.9722067E-1,5.1457155E-3,-1.3251296E-2,5.633235E-1,-7.902109E-2,-9.415917E-3,1.3238648E-1,-7.4423134E-2,5.5225044E-2,-7.729E-2,7.548791E-2,7.932652E-3,6.476935E-1,5.94892E-2,-2.7684476E-2,-7.25972E-2,4.5813113E-1,-7.809823E-2,9.605855E-1,5.410189E-2,3.1095743E-2,-7.694171E-2,7.515601E-2,3.4714103E-2,6.716933E-2,1.3618082E-2,6.417894E-2,-2.7847802E-2,5.3301007E-2,-2.3943337E-2,-6.293158E-2,4.3161128E-2,-3.7601233E-2,6.366261E-2,-6.652386E-2,4.6997853E-2,2.13797E-2,-7.641841E-2,-1.0287578E-2,-7.655239E-2],"split_indices":[19,15,17,18,32,13,23,35,6,37,12,37,30,0,32,13,47,34,39,27,32,42,0,0,0,23,21,32,1,0,0,29,0,0,37,0,8,6,0,0,0,0,0,36,0,7,0,36,0,38,0,0,29,0,0,0,0,0,0,0,0,0,0,0,0,0,0,0,0,0,0],"split_type":[0,0,0,0,0,0,0,0,0,0,0,0,0,0,0,0,0,0,0,0,0,0,0,0,0,0,0,0,0,0,0,0,0,0,0,0,0,0,0,0,0,0,0,0,0,0,0,0,0,0,0,0,0,0,0,0,0,0,0,0,0,0,0,0,0,0,0,0,0,0,0],"sum_hessian":[2.65016E3,1.377222E3,1.2729377E3,1.1445525E3,2.3266954E2,1.27080215E2,1.1458575E3,1.039843E3,1.0470954E2,1.4748346E2,8.518608E1,3.477434E1,9.230588E1,6.653117E0,1.1392045E3,8.656281E0,1.0311868E3,7.988642E1,2.4823116E1,1.3165642E2,1.5827041E1,1.2831181E1,7.23549E1,3.105873E0,3.1668467E1,6.1217953E1,3.1087925E1,3.4866207E1,1.1043383E3,4.5052614E0,4.1510196E0,1.0278507E3,3.3360562E0,4.2979403E0,7.5588486E1,5.161603E0,1.9661512E1,1.2822156E2,3.4348602E0,4.8774157E0,1.0949626E1,9.024022E0,3.807158E0,6.693935E1,5.4155555E0,5.5934963E1,5.2829866E0,1.4748568E1,1.6339357E1,2.936146E1,5.5047455E0,3.1846673E0,1.1011536E3,1.02020416E3,7.6464643E0,6.886156E1,6.7269297E0,1.3870868E1,5.790645E0,1.2183647E2,6.3850913E0,6.104254E1,5.8968E0,7.478211E0,4.8456753E1,3.8166504E0,1.0931917E1,7.014717E0,2.2346743E1,5.9704733E0,1.0951831E3],"tree_param":{"num_deleted":"0","num_feature":"48","num_nodes":"71","size_leaf_vector":"1"}},{"base_weights":[1.3881031E-2,1.1799674E0,-1.3494518E0,1.3962201E0,2.1632509E-1,-5.550418E-1,-1.46683E0,1.4295665E0,8.394247E-1,9.9752706E-1,-3.6792457E-1,-1.5387453E-1,-1.3719746E0,-1.481029E0,-8.861813E-2,1.4363449E0,-1.0079865E-2,9.6540403E-1,-6.527897E-2,1.0750366E0,-6.332529E-2,4.492756E-1,-8.185649E-1,3.9810044E-1,-7.2634596E-1,-7.625537E-2,1.5772449E-2,2.417302E-2,-1.4880488E0,-6.586585E-2,7.2238274E-2,1.443083E0,2.4794203E-1,1.3675317E0,4.3592912E-1,1.1679482E0,-3.841879E-1,8.713315E-1,-1.0788273E0,-7.723325E-2,-3.673763E-1,8.4041214E-1,-6.7848825E-1,-1.1875558E0,4.2114294E-1,-6.7156586E-3,-1.4952306E0,3.443811E-2,7.259264E-2,7.904388E-4,1.9927291E-2,7.4504696E-2,4.146583E-3,-4.6831694E-2,4.729968E-2,6.464734E-2,5.7326355E-3,2.7075717E-2,-6.2045574E-2,5.61967E-2,-7.0680924E-2,-8.101854E-2,1.8904502E-2,6.0686567E-3,-6.077857E-2,-1.9561E-2,5.50434E-2,4.518931E-2,-7.518979E-2,2.0846171E-2,-7.90027E-2,-6.39789E-2,6.17533E-2,-5.1581956E-2,-7.513501E-2],"categories":[],"categories_nodes":[],"categories_segments":[],"categories_sizes":[],"default_left":[0,0,0,0,0,0,0,0,0,0,0,0,0,0,0,0,0,0,0,0,0,0,0,0,0,0,0,0,0,0,0,0,0,0,0,0,0,0,0,0,0,0,0,0,0,0,0,0,0,0,0,0,0,0,0,0,0,0,0,0,0,0,0,0,0,0,0,0,0,0,0,0,0,0,0],"id":8,"left_children":[1,3,5,7,9,11,13,15,17,19,21,23,25,27,29,31,-1,33,-1,35,-1,37,39,41,43,-1,-1,-1,45,-1,-1,47,49,51,53,55,57,59,61,-1,63,65,67,69,71,-1,73,-1,-1,-1,-1,-1,-1,-1,-1,-1,-1,-1,-1,-1,-1,-1,-1,-1,-1,-1,-1,-1,-1,-1,-1,-1,-1,-1,-1],"loss_changes":[4.1729814E3,2.9437488E2,1.1181909E2,2.0023193E1,1.1936378E2,5.1252136E1,2.032959E1,1.24470215E1,1.9566814E1,2.0968605E1,5.5548866E1,3.4080864E1,1.3951332E1,1.5199219E1,2.4271841E1,8.153809E0,0E0,1.3004429E1,0E0,1.5267471E1,0E0,3.5611263E1,3.100309E1,2.6752157E1,2.8566286E1,0E0,0E0,0E0,9.740234E0,0E0,0E0,5.914795E0,2.110759E-1,5.4202576E0,2.1549408E1,1.3209579E1,6.4489975E0,2.6236599E1,1.0233847E1,0E0,2.5624317E1,1.3159742E1,2.295112E1,2.4736225E1,2.3500584E1,0E0,1.7756348E0,0E0,0E0,0E0,0E0,0E0,0E0,0E0,0E0,0E0,0E0,0E0,0E0,0E0,0E0,0E0,0E0,0E0,0E0,0E0,0E0,0E0,0E0,0E0,0E0,0E0,0E0,0E0,0E0],"parents":[2147483647,0,0,1,1,2,2,3,3,4,4,5,5,6,6,7,7,8,8,9,9,10,10,11,11,12,12,13,13,14,14,15,15,17,17,19,19,21,21,22,22,23,23,24,24,28,28,31,31,32,32,33,33,34,34,35,35,36,36,37,37,38,38,40,40,41,41,42,42,43,43,44,44,46,46],"right_children":[2,4,6,8,10,12,14,16,18,20,22,24,26,28,30,32,-1,34,-1,36,-1,38,40,42,44,-1,-1,-1,46,-1,-1,48,50,52,54,56,58,60,62,-1,64,66,68,70,72,-1,74,-1,-1,-1,-1,-1,-1,-1,-1,-1,-1,-1,-1,-1,-1,-1,-1,-1,-1,-1,-1,-1,-1,-1,-1,-1,-1,-1,-1],"split_conditions":[1.9140431E0,1.0867507E1,1.629385E1,1.760335E0,9.2896366E-1,3.1592884E0,1.0359049E0,1.9397412E-1,2.5183264E1,2.8355898E1,1.4554846E0,1.305924E-1,6.737478E-2,-2.9413837E-1,4.0261376E-1,2.0330815E-1,-1.0079865E-2,-1.8008634E-2,-6.527897E-2,5.847627E-1,-6.332529E-2,3.9250914E-2,4.183137E-1,6.501665E-2,2.373977E-1,-7.625537E-2,1.5772449E-2,2.417302E-2,1.3595424E1,-6.586585E-2,7.2238274E-2,6.687712E-1,-3.9312333E-2,1.4127555E-1,4.5440104E-2,1.1957268E-1,3.3161476E-2,1.0701145E-1,1.660281E-1,-7.723325E-2,2.0263626E-1,2.2315297E-1,1.4954696E-2,-1.4130576E-1,3.9202812E-1,-6.7156586E-3,1.3176955E0,3.443811E-2,7.259264E-2,7.904388E-4,1.9927291E-2,7.4504696E-2,4.146583E-3,-4.6831694E-2,4.729968E-2,6.464734E-2,5.7326355E-3,2.7075717E-2,-6.2045574E-2,5.61967E-2,-7.0680924E-2,-8.101854E-2,1.8904502E-2,6.0686567E-3,-6.077857E-2,-1.9561E-2,5.50434E-2,4.518931E-2,-7.518979E-2,2.0846171E-2,-7.90027E-2,-6.39789E-2,6.17533E-2,-5.1581956E-2,-7.513501E-2],"split_indices":[19,15,15,21,47,21,35,25,20,20,21,31,11,1,39,24,0,29,0,37,0,9,36,2,9,0,0,0,17,0,0,35,7,28,27,27,34,1,29,0,14,13,28,2,39,0,32,0,0,0,0,0,0,0,0,0,0,0,0,0,0,0,0,0,0,0,0,0,0,0,0,0,0,0,0],"split_type":[0,0,0,0,0,0,0,0,0,0,0,0,0,0,0,0,0,0,0,0,0,0,0,0,0,0,0,0,0,0,0,0,0,0,0,0,0,0,0,0,0,0,0,0,0,0,0,0,0,0,0,0,0,0,0,0,0,0,0,0,0,0,0,0,0,0,0,0,0,0,0,0,0,0,0],"sum_hessian":[2.6229155E3,1.4138385E3,1.2090771E3,1.1542571E3,2.5958148E2,1.564966E2,1.0525806E3,1.0873865E3,6.687062E1,1.1084033E2,1.4874115E2,1.0583532E2,5.0661274E1,1.0417013E3,1.087929E1,1.0830664E3,4.3199787E0,6.3724537E1,3.1460884E0,1.07721794E2,3.1185393E0,5.279065E1,9.595049E1,5.3948387E1,5.1886936E1,4.6588814E1,4.0724587E0,3.4167247E0,1.0382845E3,6.1541214E0,4.725168E0,1.0766633E3,6.4030547E0,3.5210815E1,2.851372E1,1.01525604E2,6.1961856E0,4.1753685E1,1.1036964E1,3.5758682E1,6.019181E1,3.8459663E1,1.5488723E1,3.704834E1,1.4838596E1,5.6566067E0,1.0326279E3,1.34186735E1,1.0632448E3,3.21562E0,3.1874347E0,3.1926897E1,3.283918E0,7.4455857E0,2.1068134E1,9.0467064E1,1.1058541E1,3.0989385E0,3.0972474E0,3.8094223E1,3.659459E0,8.014414E0,3.0225508E0,3.865622E1,2.1535593E1,6.558781E0,3.1900883E1,5.2353272E0,1.0253395E1,7.219403E0,2.9828936E1,4.5779123E0,1.0260684E1,1.8792324E1,1.0138356E3],"tree_param":{"num_deleted":"0","num_feature":"48","num_nodes":"75","size_leaf_vector":"1"}},{"base_weights":[2.3076227E-2,1.2468354E0,-1.2194753E0,1.3725476E0,4.6072802E-1,-3.8303688E-1,-1.423664E0,-2.600414E-2,1.3824934E0,7.118197E-1,-1.2286139E0,6.006226E-1,-6.950018E-1,3.4320855E-1,-1.436685E0,1.4241115E0,1.0634139E0,9.212372E-1,-8.331204E-1,-7.5621285E-2,2.4946516E-2,9.2478997E-1,-8.256869E-1,3.423413E-1,-9.212441E-1,2.467486E-3,2.9855737E-2,8.230081E-3,-1.4437746E0,1.4303591E0,-8.7429425E-3,1.1604481E0,2.1002987E-2,1.003419E0,-6.7825794E-2,-8.097376E-2,3.2527145E-2,1.0875921E0,-1.570094E-2,-7.398629E-2,3.516146E-2,-7.364129E-2,8.921047E-1,5.8673006E-1,-1.0308381E0,-5.373414E-1,-1.4582525E0,7.213513E-2,5.360977E-2,6.1168075E-2,4.1223555E-3,-8.898052E-2,5.706231E-2,5.3279947E-2,-6.188946E-2,6.1950304E-2,-6.345796E-3,7.419158E-2,-2.5513042E-2,-6.0543638E-2,7.0811585E-2,-4.585073E-3,-6.049521E-2,4.064316E-2,-6.87625E-2,-7.334049E-2,-4.697409E-2],"categories":[],"categories_nodes":[],"categories_segments":[],"categories_sizes":[],"default_left":[0,0,0,0,0,0,0,0,0,0,0,0,0,0,0,0,0,0,0,0,0,0,0,0,0,0,0,0,0,0,0,0,0,0,0,0,0,0,0,0,0,0,0,0,0,0,0,0,0,0,0,0,0,0,0,0,0,0,0,0,0,0,0,0,0,0,0],"id":9,"left_children":[1,3,5,7,9,11,13,-1,15,17,19,21,23,25,27,29,31,33,35,-1,-1,37,39,41,43,-1,-1,-1,45,47,-1,49,51,53,-1,-1,-1,55,-1,-1,-1,-1,57,59,61,63,65,-1,-1,-1,-1,-1,-1,-1,-1,-1,-1,-1,-1,-1,-1,-1,-1,-1,-1,-1,-1],"loss_changes":[3.904907E3,1.27045044E2,2.1689624E2,2.1790771E1,7.717302E1,7.7599E1,2.4154541E1,0E0,1.2968018E1,5.1697296E1,1.2430199E1,2.898336E1,4.530986E1,5.207022E-1,1.1905029E1,1.0146851E1,1.3231735E1,2.7370087E1,2.3615578E1,0E0,0E0,1.0551807E1,1.2887834E1,3.611541E1,2.6684906E1,0E0,0E0,0E0,1.2300049E1,2.5097656E0,0E0,7.9651337E0,2.6911224E1,2.0101868E1,0E0,0E0,0E0,8.488865E0,0E0,0E0,0E0,0E0,2.365537E1,1.8509087E1,2.452826E1,2.1091084E1,2.8007812E0,0E0,0E0,0E0,0E0,0E0,0E0,0E0,0E0,0E0,0E0,0E0,0E0,0E0,0E0,0E0,0E0,0E0,0E0,0E0,0E0],"parents":[2147483647,0,0,1,1,2,2,3,3,4,4,5,5,6,6,8,8,9,9,10,10,11,11,12,12,13,13,14,14,15,15,16,16,17,17,18,18,21,21,22,22,23,23,24,24,28,28,29,29,31,31,32,32,33,33,37,37,42,42,43,43,44,44,45,45,46,46],"right_children":[2,4,6,8,10,12,14,-1,16,18,20,22,24,26,28,30,32,34,36,-1,-1,38,40,42,44,-1,-1,-1,46,48,-1,50,52,54,-1,-1,-1,56,-1,-1,-1,-1,58,60,62,64,66,-1,-1,-1,-1,-1,-1,-1,-1,-1,-1,-1,-1,-1,-1,-1,-1,-1,-1,-1,-1],"split_conditions":[1.1371403E0,1.0867507E1,2.753269E1,6.730594E-1,5.823127E-1,1.1494261E0,4.3701836E-1,-2.600414E-2,7.0683724E-1,1.252531E-1,1.1892574E0,1.7616974E0,-3.9178725E-2,1.1227724E-1,-1.4694919E-1,1.5708011E0,1.2272338E-1,1.723282E1,1.5738103E-1,-7.5621285E-2,2.4946516E-2,1.4725679E-1,1.9922882E-1,3.286124E-2,-9.614028E-2,2.467486E-3,2.9855737E-2,8.230081E-3,4.5013812E-1,1.5163234E0,-8.7429425E-3,9.6385103E-1,9.1547924E-1,1.719217E0,-6.7825794E-2,-8.097376E-2,3.2527145E-2,1.729477E-1,-1.570094E-2,-7.398629E-2,3.516146E-2,-7.364129E-2,2.4520312E-1,1.5589851E-1,1.1882968E1,6.6680714E-2,4.216892E-1,7.213513E-2,5.360977E-2,6.1168075E-2,4.1223555E-3,-8.898052E-2,5.706231E-2,5.3279947E-2,-6.188946E-2,6.1950304E-2,-6.345796E-3,7.419158E-2,-2.5513042E-2,-6.0543638E-2,7.0811585E-2,-4.585073E-3,-6.049521E-2,4.064316E-2,-6.87625E-2,-7.334049E-2,-4.697409E-2],"split_indices":[18,15,20,43,37,19,22,0,19,42,35,18,6,27,25,32,42,15,41,0,0,27,24,11,23,0,0,0,37,22,0,18,18,32,0,0,0,28,0,0,0,0,3,24,16,28,42,0,0,0,0,0,0,0,0,0,0,0,0,0,0,0,0,0,0,0,0],"split_type":[0,0,0,0,0,0,0,0,0,0,0,0,0,0,0,0,0,0,0,0,0,0,0,0,0,0,0,0,0,0,0,0,0,0,0,0,0,0,0,0,0,0,0,0,0,0,0,0,0,0,0,0,0,0,0,0,0,0,0,0,0,0,0,0,0,0,0],"sum_hessian":[2.5660298E3,1.2928298E3,1.2732E3,1.113835E3,1.7899483E2,2.504838E2,1.0227162E3,5.501909E0,1.108333E3,1.5638823E2,2.2606592E1,6.0012367E1,1.9047142E2,7.2401133E0,1.0154761E3,9.771105E2,1.3122258E2,1.381327E2,1.8255527E1,1.9573366E1,3.0332274E0,4.9242424E1,1.0769941E1,3.393249E1,1.5653894E2,4.0922027E0,3.1479104E0,4.3160396E0,1.01116003E3,9.734748E2,3.6356556E0,1.1985642E2,1.1366159E1,1.3390475E2,4.22794E0,1.1915873E1,6.3396554E0,4.3701977E1,5.5404496E0,7.6114836E0,3.1584575E0,7.455516E0,2.6476974E1,1.0249086E1,1.4628986E2,1.6604622E1,9.9455536E2,9.3784625E2,3.5628544E1,1.1303213E2,6.8243003E0,4.0993094E0,7.2668495E0,1.308438E2,3.0609593E0,3.8912838E1,4.7891374E0,1.8629492E1,7.8474817E0,3.0528903E0,7.196196E0,2.3758049E1,1.225318E2,6.3242617E0,1.028036E1,9.7642883E2,1.8126556E1],"tree_param":{"num_deleted":"0","num_feature":"48","num_nodes":"67","size_leaf_vector":"1"}},{"base_weights":[7.221178E-3,1.1224351E0,-1.2881304E0,1.2982551E0,2.1215141E-1,-5.342554E-1,-1.3937864E0,1.3421669E0,3.9114484E-1,7.1479344E-1,-5.0574636E-1,-8.314636E-1,3.979258E-1,4.7911152E-2,-1.4075364E0,1.3543127E0,-2.2071125E-1,-7.572453E-2,7.7828175E-1,8.227969E-1,-7.118963E-2,9.352564E-4,-1.3086736E0,-2.567004E-1,-1.3334581E0,8.350482E-1,-6.5583274E-2,1.8374875E-2,-1.4133916E0,1.3933165E0,1.0875587E0,6.1336786E-2,-8.599325E-2,-7.0174836E-2,1.0599343E0,8.987977E-1,-6.3712195E-2,-7.265924E-2,4.090381E-1,2.8497664E-2,-7.583338E-2,4.1813934E-1,-7.23873E-2,-7.4492104E-2,5.249847E-2,1.1661727E0,-6.347585E-2,-1.4274689E0,-7.311718E-1,7.000906E-2,5.143651E-2,5.7756126E-2,-2.8275488E-2,6.17561E-2,-1.413619E-2,-9.1729715E-4,5.197102E-2,-6.888264E-2,3.626289E-2,-3.0920008E-2,5.9871163E-2,-0E0,7.117934E-2,-1.9316828E-2,-7.1788296E-2,3.1755537E-2,-6.81152E-2],"categories":[],"categories_nodes":[],"categories_segments":[],"categories_sizes":[],"default_left":[0,0,0,0,0,0,0,0,0,0,0,0,0,0,0,0,0,0,0,0,0,0,0,0,0,0,0,0,0,0,0,0,0,0,0,0,0,0,0,0,0,0,0,0,0,0,0,0,0,0,0,0,0,0,0,0,0,0,0,0,0,0,0,0,0,0,0],"id":10,"left_children":[1,3,5,7,9,11,13,15,17,19,21,23,25,-1,27,29,31,-1,33,35,-1,37,39,41,43,45,-1,-1,47,49,51,-1,-1,-1,53,55,-1,-1,57,-1,-1,59,-1,-1,-1,61,-1,63,65,-1,-1,-1,-1,-1,-1,-1,-1,-1,-1,-1,-1,-1,-1,-1,-1,-1,-1],"loss_changes":[3.5699316E3,2.1211426E2,9.012402E1,4.3625E1,7.842088E1,3.9790188E1,3.3797607E1,2.054956E1,4.012783E1,3.0606743E1,3.657003E1,3.074057E1,2.7194916E1,0E0,1.0981934E1,9.190918E0,2.163871E1,0E0,2.89017E1,2.058976E1,0E0,3.3624958E1,1.4529514E1,4.2353428E1,2.3028221E1,2.134633E1,0E0,0E0,8.282593E0,6.0583496E-1,1.6258163E1,0E0,0E0,0E0,9.893349E0,1.5416618E1,0E0,0E0,2.6038496E1,0E0,0E0,2.8097136E1,0E0,0E0,0E0,7.528309E0,0E0,7.6619873E0,2.0151447E1,0E0,0E0,0E0,0E0,0E0,0E0,0E0,0E0,0E0,0E0,0E0,0E0,0E0,0E0,0E0,0E0,0E0,0E0],"parents":[2147483647,0,0,1,1,2,2,3,3,4,4,5,5,6,6,7,7,8,8,9,9,10,10,11,11,12,12,14,14,15,15,16,16,18,18,19,19,21,21,22,22,23,23,24,24,25,25,28,28,29,29,30,30,34,34,35,35,38,38,41,41,45,45,47,47,48,48],"right_children":[2,4,6,8,10,12,14,16,18,20,22,24,26,-1,28,30,32,-1,34,36,-1,38,40,42,44,46,-1,-1,48,50,52,-1,-1,-1,54,56,-1,-1,58,-1,-1,60,-1,-1,-1,62,-1,64,66,-1,-1,-1,-1,-1,-1,-1,-1,-1,-1,-1,-1,-1,-1,-1,-1,-1,-1],"split_conditions":[1.4647149E0,7.70912E-1,2.2413623E0,1.3996012E1,1.3687431E0,3.2783067E-1,-3.2735446E-1,1.7728218E-1,2.5264704E-1,1.4009197E-1,9.048131E-2,8.202832E-2,1.629385E1,4.7911152E-2,7.92755E0,3.241172E-1,-1.3220687E-1,-7.572453E-2,3.5886237E-1,2.0215097E-1,-7.118963E-2,5.6918472E-2,-1.1354622E-1,7.730731E-2,3.3625288E0,5.3811934E-2,-6.5583274E-2,1.8374875E-2,4.845611E-1,1.764878E-1,1.2142442E-1,6.1336786E-2,-8.599325E-2,-7.0174836E-2,1.2120959E-1,4.0249534E-2,-6.3712195E-2,-7.265924E-2,1.1330067E0,2.8497664E-2,-7.583338E-2,3.200742E-2,-7.23873E-2,-7.4492104E-2,5.249847E-2,5.941502E-2,-6.347585E-2,-1.0396261E-1,-4.007495E-3,7.000906E-2,5.143651E-2,5.7756126E-2,-2.8275488E-2,6.17561E-2,-1.413619E-2,-9.1729715E-4,5.197102E-2,-6.888264E-2,3.626289E-2,-3.0920008E-2,5.9871163E-2,-0E0,7.117934E-2,-1.9316828E-2,-7.1788296E-2,3.1755537E-2,-6.81152E-2],"split_indices":[18,18,19,16,32,13,1,25,13,6,5,5,15,0,16,18,0,0,10,0,0,40,30,26,18,34,0,0,39,28,42,0,0,0,24,34,0,0,44,0,0,11,0,0,0,25,0,30,0,0,0,0,0,0,0,0,0,0,0,0,0,0,0,0,0,0,0],"split_type":[0,0,0,0,0,0,0,0,0,0,0,0,0,0,0,0,0,0,0,0,0,0,0,0,0,0,0,0,0,0,0,0,0,0,0,0,0,0,0,0,0,0,0,0,0,0,0,0,0,0,0,0,0,0,0,0,0,0,0,0,0,0,0,0,0,0,0],"sum_hessian":[2.4692456E3,1.3269974E3,1.1422482E3,1.1117319E3,2.1526556E2,1.4126926E2,1.00097894E3,1.059837E3,5.1894867E1,1.2669949E2,8.856607E1,1.0728029E2,3.398896E1,5.376252E0,9.956027E2,1.05186E3,7.9769883E0,8.227186E0,4.366768E1,1.21238686E2,5.460808E0,5.4836304E1,3.372977E1,5.081255E1,5.6467743E1,2.7521963E1,6.466998E0,3.0141068E0,9.925886E2,9.136682E2,1.3819182E2,4.116998E0,3.85999E0,4.496683E0,3.9170998E1,1.1759586E2,3.6428187E0,1.1402378E1,4.3433926E1,3.1407862E0,3.0588985E1,3.2795677E1,1.8016874E1,5.3382053E1,3.0856879E0,2.420676E1,3.3152027E0,9.71307E2,2.1281582E1,8.9372595E2,1.9942276E1,1.3311299E2,5.0788403E0,3.4786663E1,4.3843317E0,1.5654607E1,1.0194126E2,5.978965E0,3.745496E1,1.4108215E1,1.8687462E1,4.576896E0,1.9629864E1,8.150579E0,9.6315643E2,6.6723804E0,1.4609201E1],"tree_param":{"num_deleted":"0","num_feature":"48","num_nodes":"67","size_leaf_vector":"1"}},{"base_weights":[1.2333039E-2,1.0990158E0,-1.2572011E0,1.2362849E0,-2.4613012E-1,-5.0447583E-1,-1.3680965E0,1.3077013E0,5.7499844E-1,5.88602E-1,-7.4874276E-1,6.598692E-1,-7.883355E-1,-1.8889546E-1,-1.3895035E0,6.7656577E-1,1.3327875E0,7.605912E-1,-9.52011E-1,-7.031444E-2,8.401088E-1,8.345122E-1,-1.0220021E0,-6.284746E-2,1.0124867E0,-1.140045E0,2.745284E-1,7.65997E-1,-6.3226305E-2,-3.3541566E-1,-1.3966233E0,8.998595E-1,-7.400919E-2,1.3411554E0,3.7522903E-1,3.464687E-1,1.2051567E0,-7.591889E-2,3.2380346E-2,1.1345307E0,-4.8851383E-1,-3.3742536E-3,6.739602E-2,1.1779572E-1,-7.703E-2,-1.1126965E-2,1.3549784E0,-4.444956E-1,-7.273216E-2,8.5199666E-1,-6.605807E-2,7.5041145E-2,-7.64625E-4,-5.7823893E-2,3.3693057E-2,-7.026702E-2,-8.983747E-1,-2.9694652E-2,5.6145497E-2,6.750512E-2,3.2538805E-2,5.5117637E-2,-1.6362485E-2,4.511417E-2,-1.1897558E-2,6.80891E-2,3.7200747E-3,6.58259E-2,-7.372605E-3,-6.764359E-2,3.427666E-2,-7.496044E-2,4.0702745E-2,1.6108993E-2,7.6846436E-2,2.1197999E-2,-7.0163414E-2,7.567238E-2,-2.1267624E-3,5.0776042E-2,-6.683325E-2],"categories":[],"categories_nodes":[],"categories_segments":[],"categories_sizes":[],"default_left":[0,0,0,0,0,0,0,0,0,0,0,0,0,0,0,0,0,0,0,0,0,0,0,0,0,0,0,0,0,0,0,0,0,0,0,0,0,0,0,0,0,0,0,0,0,0,0,0,0,0,0,0,0,0,0,0,0,0,0,0,0,0,0,0,0,0,0,0,0,0,0,0,0,0,0,0,0,0,0,0,0],"id":11,"left_children":[1,3,5,7,9,11,13,15,17,19,21,23,25,27,29,31,33,35,37,-1,39,41,43,-1,45,47,49,51,-1,53,55,57,-1,59,61,63,65,-1,-1,67,69,-1,-1,71,-1,-1,73,75,-1,77,-1,-1,-1,-1,-1,-1,79,-1,-1,-1,-1,-1,-1,-1,-1,-1,-1,-1,-1,-1,-1,-1,-1,-1,-1,-1,-1,-1,-1,-1,-1],"loss_changes":[3.3413784E3,2.4137366E2,9.236279E1,5.4996338E1,5.1477962E1,4.8500404E1,2.4138062E1,1.5807617E1,3.3966923E1,2.4299543E1,3.3934166E1,2.0796791E1,4.4214508E1,2.0109402E1,6.527588E0,2.1988708E1,7.546509E0,1.8806538E1,1.2942798E1,0E0,1.692651E1,5.658003E0,3.914441E1,0E0,1.1000534E1,1.8492119E1,2.8609398E1,6.153531E0,0E0,7.3073483E0,2.626587E0,1.3927753E1,0E0,5.20105E0,5.7405825E0,1.8477068E1,8.653725E0,0E0,0E0,8.357487E0,9.31531E0,0E0,0E0,2.5252121E1,0E0,0E0,3.0391884E0,2.4880424E1,0E0,1.3578897E1,0E0,0E0,0E0,0E0,0E0,0E0,1.756073E1,0E0,0E0,0E0,0E0,0E0,0E0,0E0,0E0,0E0,0E0,0E0,0E0,0E0,0E0,0E0,0E0,0E0,0E0,0E0,0E0,0E0,0E0,0E0,0E0],"parents":[2147483647,0,0,1,1,2,2,3,3,4,4,5,5,6,6,7,7,8,8,9,9,10,10,11,11,12,12,13,13,14,14,15,15,16,16,17,17,18,18,20,20,21,21,22,22,24,24,25,25,26,26,27,27,29,29,30,30,31,31,33,33,34,34,35,35,36,36,39,39,40,40,43,43,46,46,47,47,49,49,56,56],"right_children":[2,4,6,8,10,12,14,16,18,20,22,24,26,28,30,32,34,36,38,-1,40,42,44,-1,46,48,50,52,-1,54,56,58,-1,60,62,64,66,-1,-1,68,70,-1,-1,72,-1,-1,74,76,-1,78,-1,-1,-1,-1,-1,-1,80,-1,-1,-1,-1,-1,-1,-1,-1,-1,-1,-1,-1,-1,-1,-1,-1,-1,-1,-1,-1,-1,-1,-1,-1],"split_conditions":[1.4647149E0,6.6839595E0,1.5485906E1,7.70912E-1,-1.1902644E-3,1.3888757E0,1.24007024E-1,8.660688E-1,1.2538818E0,3.7811634E-1,-2.731085E-2,3.0407763E-1,3.300995E-1,1.8162542E1,-7.694171E-2,2.934568E-1,1.486758E1,1.1342643E0,2.5171816E-1,-7.031444E-2,1.0805215E0,1.1020098E-1,2.0156473E1,-6.284746E-2,1.2087586E0,8.4248856E-2,2.4362288E0,1.2947705E-1,-6.3226305E-2,2.1845003E1,4.216892E-1,3.1632018E-1,-7.400919E-2,1.9266683E-1,5.399471E-3,-1.2958584E-2,5.9085436E-2,-7.591889E-2,3.2380346E-2,1.707388E-1,1.1160799E-1,-3.3742536E-3,6.739602E-2,7.451028E-2,-7.703E-2,-1.1126965E-2,1.5708377E0,1.7843483E-2,-7.273216E-2,1.9347083E-2,-6.605807E-2,7.5041145E-2,-7.64625E-4,-5.7823893E-2,3.3693057E-2,-7.026702E-2,3.9659092E0,-2.9694652E-2,5.6145497E-2,6.750512E-2,3.2538805E-2,5.5117637E-2,-1.6362485E-2,4.511417E-2,-1.1897558E-2,6.80891E-2,3.7200747E-3,6.58259E-2,-7.372605E-3,-6.764359E-2,3.427666E-2,-7.496044E-2,4.0702745E-2,1.6108993E-2,7.6846436E-2,2.1197999E-2,-7.0163414E-2,7.567238E-2,-2.1267624E-3,5.0776042E-2,-6.683325E-2],"split_indices":[18,45,17,18,26,21,3,43,33,36,41,39,13,17,29,3,17,43,14,0,33,23,20,0,33,28,19,14,0,17,42,10,0,28,11,6,8,0,0,31,2,0,0,24,0,0,18,0,0,30,0,0,0,0,0,0,19,0,0,0,0,0,0,0,0,0,0,0,0,0,0,0,0,0,0,0,0,0,0,0,0],"split_type":[0,0,0,0,0,0,0,0,0,0,0,0,0,0,0,0,0,0,0,0,0,0,0,0,0,0,0,0,0,0,0,0,0,0,0,0,0,0,0,0,0,0,0,0,0,0,0,0,0,0,0,0,0,0,0,0,0,0,0,0,0,0,0,0,0,0,0,0,0,0,0,0,0,0,0,0,0,0,0,0,0],"sum_hessian":[2.420034E3,1.3040337E3,1.1160002E3,1.1834233E3,1.2061034E2,1.4413109E2,9.718692E2,1.0670565E3,1.16366776E2,4.518976E1,7.542058E1,2.7922153E1,1.1620894E2,1.7587004E1,9.5428217E2,4.201344E1,1.0250431E3,1.04262146E2,1.210463E1,4.500873E0,4.0688885E1,1.0744935E1,6.4675644E1,3.895906E0,2.4026247E1,8.73317E1,2.8877241E1,9.419618E0,8.167385E0,6.8194103E0,9.4746277E2,3.8641884E1,3.3715553E0,1.0156625E3,9.380664E0,5.501694E1,4.9245205E1,9.023159E0,3.0814714E0,3.348908E1,7.1998057E0,4.1418953E0,6.6030397E0,2.0406141E1,4.4269505E1,5.228938E0,1.879731E1,2.8048851E1,5.928285E1,2.1591993E1,7.2852488E0,4.4455156E0,4.974102E0,3.7345388E0,3.0848715E0,9.2918475E2,1.8278017E1,4.7461734E0,3.389571E1,1.001582E3,1.4080512E1,4.3997145E0,4.9809494E0,2.8007507E1,2.7009434E1,4.2996803E1,6.248401E0,2.9370745E1,4.118336E0,4.108156E0,3.0916495E0,5.75162E0,1.4654521E1,3.31287E0,1.548444E1,1.4955594E1,1.3093257E1,1.2079704E1,9.512289E0,3.117885E0,1.5160131E1],"tree_param":{"num_deleted":"0","num_feature":"48","num_nodes":"81","size_leaf_vector":"1"}},{"base_weights":[2.537853E-2,1.0641279E0,-1.2298987E0,1.2360123E0,1.6541003E-1,9.117287E-1,-1.2788632E0,1.2643137E0,-1.9086406E-1,6.1232376E-1,-5.010547E-1,1.2429346E0,-1.5997373E-2,-1.038418E-1,-1.3139205E0,1.291914E0,6.804851E-1,1.0740088E0,-7.801532E-2,7.9452866E-1,-1.0615108E0,-1.0939535E-1,-7.266755E-2,7.4264206E-2,7.0517175E-3,4.3288836E-1,-7.177935E-2,4.2781457E-1,-1.3393179E0,1.3033012E0,-1.9071509E-1,-8.4963655E-1,9.795511E-1,6.525099E-2,1.623272E-2,-4.248129E-1,9.188559E-1,1.0966431E-2,-7.476972E-2,3.5146555E-1,-6.9632225E-2,-6.1157335E-2,9.034773E-1,1.3017241E0,-6.0494732E-2,-4.8669198E-1,-1.3538665E0,6.561976E-2,3.0324483E-2,5.971965E-2,-8.403516E-2,1.9777216E-2,-7.926252E-2,5.7068046E-2,-1.322303E-2,4.6890944E-2,-7.619568E-2,5.157571E-2,-0E0,-7.361395E-2,3.6574867E-2,-7.4862773E-3,6.7912616E-2,2.3648832E-2,7.7976294E-2,-6.7283474E-2,5.6176484E-2,1.0530995E-3,-6.802399E-2],"categories":[],"categories_nodes":[],"categories_segments":[],"categories_sizes":[],"default_left":[0,0,0,0,0,0,0,0,0,0,0,0,0,0,0,0,0,0,0,0,0,0,0,0,0,0,0,0,0,0,0,0,0,0,0,0,0,0,0,0,0,0,0,0,0,0,0,0,0,0,0,0,0,0,0,0,0,0,0,0,0,0,0,0,0,0,0,0,0],"id":12,"left_children":[1,3,5,7,9,11,13,15,17,19,21,23,-1,25,27,29,31,33,-1,35,37,39,-1,-1,-1,41,-1,43,45,47,49,51,53,-1,-1,55,57,-1,-1,59,-1,-1,61,63,-1,65,67,-1,-1,-1,-1,-1,-1,-1,-1,-1,-1,-1,-1,-1,-1,-1,-1,-1,-1,-1,-1,-1,-1],"loss_changes":[3.1289153E3,2.0249695E2,1.1514099E2,4.4851562E1,6.3481915E1,1.0616884E1,4.349829E1,1.6339478E1,4.0236153E1,3.969603E1,3.1605364E1,4.924055E0,0E0,2.3563738E1,4.6304443E1,1.776184E1,2.4212723E1,1.5100899E0,0E0,1.7963226E1,7.6183825E0,3.7141132E1,0E0,0E0,0E0,1.9380339E1,0E0,2.3810575E1,1.17751465E1,5.495117E0,1.9931797E1,8.833775E0,9.0924E0,0E0,0E0,1.8418861E1,1.0868797E1,0E0,0E0,3.3030197E1,0E0,0E0,9.384129E0,1.3340626E0,0E0,2.7457708E1,9.25061E0,0E0,0E0,0E0,0E0,0E0,0E0,0E0,0E0,0E0,0E0,0E0,0E0,0E0,0E0,0E0,0E0,0E0,0E0,0E0,0E0,0E0,0E0],"parents":[2147483647,0,0,1,1,2,2,3,3,4,4,5,5,6,6,7,7,8,8,9,9,10,10,11,11,13,13,14,14,15,15,16,16,17,17,19,19,20,20,21,21,25,25,27,27,28,28,29,29,30,30,31,31,32,32,35,35,36,36,39,39,42,42,43,43,45,45,46,46],"right_children":[2,4,6,8,10,12,14,16,18,20,22,24,-1,26,28,30,32,34,-1,36,38,40,-1,-1,-1,42,-1,44,46,48,50,52,54,-1,-1,56,58,-1,-1,60,-1,-1,62,64,-1,66,68,-1,-1,-1,-1,-1,-1,-1,-1,-1,-1,-1,-1,-1,-1,-1,-1,-1,-1,-1,-1,-1,-1],"split_conditions":[1.4647149E0,7.70912E-1,9.21509E-1,7.709514E0,1.384213E0,1.7616974E0,1.2065964E1,1.3392428E1,7.442661E-1,1.1768431E-1,1.4200523E-1,1.23304226E-1,-1.5997373E-2,8.991067E-2,-9.614028E-2,1.7728218E-1,2.9394895E-1,5.7918185E-1,-7.801532E-2,2.6658678E-1,-5.534095E-2,5.761411E-1,-7.266755E-2,7.4264206E-2,7.0517175E-3,3.1632018E-1,-7.177935E-2,2.452901E0,-8.236813E-2,1.9266683E-1,-1.008928E-1,-4.780983E-2,1.2120959E-1,6.525099E-2,1.623272E-2,8.944469E0,5.99155E-1,1.0966431E-2,-7.476972E-2,1.8638198E-3,-6.9632225E-2,-6.1157335E-2,1.3866337E-1,9.648858E-3,-6.0494732E-2,2.3977764E1,-1.4694919E-1,6.561976E-2,3.0324483E-2,5.971965E-2,-8.403516E-2,1.9777216E-2,-7.926252E-2,5.7068046E-2,-1.322303E-2,4.6890944E-2,-7.619568E-2,5.157571E-2,-0E0,-7.361395E-2,3.6574867E-2,-7.4862773E-3,6.7912616E-2,2.3648832E-2,7.7976294E-2,-6.7283474E-2,5.6176484E-2,1.0530995E-3,-6.802399E-2],"split_indices":[18,18,21,45,32,18,16,16,47,6,29,9,0,40,23,25,13,33,0,10,24,37,0,0,0,10,0,22,30,28,5,30,24,0,0,16,37,0,0,24,0,0,28,2,0,15,25,0,0,0,0,0,0,0,0,0,0,0,0,0,0,0,0,0,0,0,0,0,0],"split_type":[0,0,0,0,0,0,0,0,0,0,0,0,0,0,0,0,0,0,0,0,0,0,0,0,0,0,0,0,0,0,0,0,0,0,0,0,0,0,0,0,0,0,0,0,0,0,0,0,0,0,0,0,0,0,0,0,0,0,0,0,0,0,0,0,0,0,0,0,0],"sum_hessian":[2.397634E3,1.3120975E3,1.0855365E3,1.1010327E3,2.1106482E2,2.3824612E1,1.0617119E3,1.0797994E3,2.1233227E1,1.2648116E2,8.4583664E1,1.8832481E1,4.9921303E0,3.095637E1,1.0307555E3,1.029735E3,5.0064453E1,1.1112228E1,1.0120998E1,1.1459231E2,1.1888856E1,6.079843E1,2.3785229E1,1.5077654E1,3.7548282E0,2.249152E1,8.4648485E0,1.452983E1,1.0162257E3,1.0220734E3,7.661591E0,7.829706E0,4.2234745E1,7.824972E0,3.287256E0,1.0304962E1,1.04287346E2,3.0750942E0,8.813762E0,4.521006E1,1.5588373E1,4.576128E0,1.7915392E1,9.647811E0,4.8820195E0,1.7742512E1,9.984832E2,1.00789276E3,1.4180657E1,4.0385695E0,3.6230218E0,3.0289407E0,4.8007655E0,3.7517685E1,4.7170606E0,4.6257963E0,5.6791663E0,9.275984E1,1.1527501E1,7.2552795E0,3.795478E1,5.538889E0,1.2376503E1,3.053705E0,6.5941057E0,1.171794E1,6.0245714E0,4.6967087E0,9.937865E2],"tree_param":{"num_deleted":"0","num_feature":"48","num_nodes":"69","size_leaf_vector":"1"}},{"base_weights":[1.354987E-2,1.0347937E0,-1.2148755E0,1.1870815E0,-3.3808667E-2,7.394413E-1,-1.2527215E0,1.2942393E0,7.553187E-1,4.523501E-1,-8.799033E-1,1.1927584E0,-1.974466E-2,-6.6002274E-1,-1.3099446E0,-2.0117473E-3,1.2990196E0,8.567378E-1,-7.3165333E-1,6.981935E-1,-7.008212E-2,8.6747867E-1,-1.1433849E0,1.13747595E-2,7.112123E-2,8.950306E-1,-8.940647E-1,3.7351802E-2,-1.324395E0,1.3034687E0,-0E0,9.8067486E-1,3.9896734E-2,-7.988994E-2,4.1335136E-2,8.3558035E-1,-6.239136E-2,6.298096E-2,6.3406597E-3,4.341528E-2,-1.3864559E0,-2.5175053E-3,7.733246E-2,1.7917268E-1,-1.1933391E0,1.3168153E-2,-1.330817E0,6.535182E-2,2.5146369E-2,5.4104216E-2,7.028609E-3,-5.3133823E-2,3.4362283E-2,-2.5155717E-3,4.8820056E-2,3.0105546E-2,-7.752905E-2,4.519655E-2,-5.9891213E-2,-7.0868365E-2,-8.147249E-4,-1.9482907E-2,-6.689898E-2],"categories":[],"categories_nodes":[],"categories_segments":[],"categories_sizes":[],"default_left":[0,0,0,0,0,0,0,0,0,0,0,0,0,0,0,0,0,0,0,0,0,0,0,0,0,0,0,0,0,0,0,0,0,0,0,0,0,0,0,0,0,0,0,0,0,0,0,0,0,0,0,0,0,0,0,0,0,0,0,0,0,0,0],"id":13,"left_children":[1,3,5,7,9,11,13,15,17,19,21,23,-1,25,27,-1,29,31,33,35,-1,37,39,-1,-1,41,43,-1,45,47,-1,49,51,-1,-1,53,-1,-1,-1,-1,55,-1,-1,57,59,-1,61,-1,-1,-1,-1,-1,-1,-1,-1,-1,-1,-1,-1,-1,-1,-1,-1],"loss_changes":[2.9046953E3,2.0590979E2,7.8716064E1,5.0023315E1,6.567845E1,1.1115716E1,3.3922485E1,5.824463E0,3.421682E1,4.7084316E1,2.7856258E1,2.8347702E0,0E0,3.4643013E1,2.8973145E1,0E0,5.0646973E0,2.1013153E1,2.1229753E1,2.5107368E1,0E0,2.0706463E0,2.625901E1,0E0,0E0,7.9944935E0,2.6453926E1,0E0,9.974365E0,1.6722412E0,0E0,1.516983E1,2.1160751E1,0E0,0E0,1.0728786E1,0E0,0E0,0E0,0E0,1.6058105E1,0E0,0E0,1.9557526E1,1.6667236E1,0E0,5.5740967E0,0E0,0E0,0E0,0E0,0E0,0E0,0E0,0E0,0E0,0E0,0E0,0E0,0E0,0E0,0E0,0E0],"parents":[2147483647,0,0,1,1,2,2,3,3,4,4,5,5,6,6,7,7,8,8,9,9,10,10,11,11,13,13,14,14,16,16,17,17,18,18,19,19,21,21,22,22,25,25,26,26,28,28,29,29,31,31,32,32,35,35,40,40,43,43,44,44,46,46],"right_children":[2,4,6,8,10,12,14,16,18,20,22,24,-1,26,28,-1,30,32,34,36,-1,38,40,-1,-1,42,44,-1,46,48,-1,50,52,-1,-1,54,-1,-1,-1,-1,56,-1,-1,58,60,-1,62,-1,-1,-1,-1,-1,-1,-1,-1,-1,-1,-1,-1,-1,-1,-1,-1],"split_conditions":[1.4647149E0,1.4524802E0,9.21509E-1,9.37022E0,5.772146E-2,3.0294186E-2,5.272318E-1,6.900728E-1,2.0691618E-1,5.847627E-1,2.376053E-2,5.425694E-1,-1.974466E-2,-4.5318674E-2,8.653528E0,-2.0117473E-3,1.5968577E0,1.07261084E-1,1.3372253E-1,1.7368258E0,-7.008212E-2,-4.6121348E-2,-1.3485323E-1,1.13747595E-2,7.112123E-2,4.2767078E-1,1.3277987E-1,3.7351802E-2,-1.4499661E-1,1.681481E-1,-0E0,1.0970552E-1,1.2551242E0,-7.988994E-2,4.1335136E-2,2.2315297E-1,-6.239136E-2,6.298096E-2,6.3406597E-3,4.341528E-2,-9.176741E-2,-2.5175053E-3,7.733246E-2,7.106407E-2,2.7308196E-1,1.3168153E-2,3.8476966E-3,6.535182E-2,2.5146369E-2,5.4104216E-2,7.028609E-3,-5.3133823E-2,3.4362283E-2,-2.5155717E-3,4.8820056E-2,3.0105546E-2,-7.752905E-2,4.519655E-2,-5.9891213E-2,-7.0868365E-2,-8.147249E-4,-1.9482907E-2,-6.689898E-2],"split_indices":[18,19,21,15,26,12,37,43,9,37,31,21,0,5,16,0,32,42,40,32,0,28,5,0,0,10,4,0,23,25,0,12,38,0,0,13,0,0,0,0,29,0,0,12,14,0,41,0,0,0,0,0,0,0,0,0,0,0,0,0,0,0,0],"split_type":[0,0,0,0,0,0,0,0,0,0,0,0,0,0,0,0,0,0,0,0,0,0,0,0,0,0,0,0,0,0,0,0,0,0,0,0,0,0,0,0,0,0,0,0,0,0,0,0,0,0,0,0,0,0,0,0,0,0,0,0,0,0,0],"sum_hessian":[2.3133926E3,1.2633518E3,1.0500406E3,1.1057524E3,1.5759933E2,1.9545784E1,1.0304949E3,8.8410095E2,2.2165149E2,1.00309525E2,5.7289818E1,1.3991125E1,5.5546594E0,9.198834E1,9.385066E2,3.0545502E0,8.8104645E2,2.0795872E2,1.3692758E1,8.916359E1,1.1145935E1,7.1565347E0,5.013328E1,3.1553726E0,1.08357525E1,1.1608181E1,8.038016E1,6.14512E0,9.3236145E2,8.7801636E2,3.0300465E0,1.8028203E2,2.7676693E1,8.82604E0,4.866717E0,8.386483E1,5.2987556E0,4.132786E0,3.0237489E0,5.0828924E0,4.5050392E1,5.050331E0,6.55785E0,1.7541431E1,6.2838726E1,3.5320215E0,9.288294E2,8.733665E2,4.649825E0,1.6050078E2,1.9781256E1,9.943955E0,1.7732737E1,1.1493399E1,7.237143E1,3.1848097E0,4.186558E1,1.1765197E1,5.776235E0,5.254806E1,1.0290665E1,7.539308E0,9.212901E2],"tree_param":{"num_deleted":"0","num_feature":"48","num_nodes":"63","size_leaf_vector":"1"}},{"base_weights":[5.427223E-3,1.0088917E0,-1.1703919E0,1.199641E0,1.4117739E-1,3.8486195E-1,-1.2528166E0,1.2507708E0,6.5855E-1,5.795982E-1,-5.560537E-1,6.488689E-1,-6.8102084E-2,-3.533195E-1,-1.2821121E0,1.2566419E0,-9.522564E-3,8.1232E-1,-7.283914E-2,8.095449E-1,-5.082651E-1,8.6943054E-1,-9.507558E-1,8.245913E-1,-5.918866E-2,5.168239E-1,-6.7756765E-2,-3.6638606E-2,-1.2951205E0,1.2616928E0,1.9335517E-3,-3.9950382E-2,9.425044E-1,9.0306675E-1,-6.2320825E-2,8.032089E-1,-7.8368075E-2,5.833529E-2,6.9933824E-2,-7.0780486E-2,-2.0775941E-1,-1.5836528E-2,1.0042331E0,-6.7907256E-1,7.6312885E-2,5.925682E-2,-5.988251E-2,2.3870215E-2,-1.3020096E0,6.3386425E-2,1.321639E-2,5.7410814E-2,1.5577505E-2,5.1308084E-2,-4.1837795E-3,-5.9912032E-3,6.800175E-2,-6.766423E-2,5.467653E-2,-7.120913E-2,3.2173783E-2,-1.4907258E-2,5.931435E-2,-6.417224E-2,1.6525844E-2,-1.386465E-2,-6.547879E-2],"categories":[],"categories_nodes":[],"categories_segments":[],"categories_sizes":[],"default_left":[0,0,0,0,0,0,0,0,0,0,0,0,0,0,0,0,0,0,0,0,0,0,0,0,0,0,0,0,0,0,0,0,0,0,0,0,0,0,0,0,0,0,0,0,0,0,0,0,0,0,0,0,0,0,0,0,0,0,0,0,0,0,0,0,0,0,0],"id":14,"left_children":[1,3,5,7,9,11,13,15,17,19,21,23,-1,25,27,29,-1,31,-1,33,35,37,39,41,-1,43,-1,45,47,49,-1,-1,51,53,-1,55,-1,57,-1,-1,59,-1,61,63,-1,-1,-1,-1,65,-1,-1,-1,-1,-1,-1,-1,-1,-1,-1,-1,-1,-1,-1,-1,-1,-1,-1],"loss_changes":[2.6615889E3,2.0115381E2,1.3371545E2,2.6584106E1,6.774988E1,2.5246368E1,2.5383545E1,8.047241E0,2.987555E1,3.4461754E1,4.8983025E1,1.5995752E1,0E0,2.9210556E1,1.5293091E1,5.398926E0,0E0,1.8199734E1,0E0,2.2766617E1,3.5044506E1,7.9391937E0,2.2874737E1,9.264544E0,0E0,2.2997698E1,0E0,1.6996685E1,1.2244385E1,4.9466553E0,0E0,0E0,9.5432205E0,1.3352928E1,0E0,6.177913E0,0E0,1.4064919E1,0E0,0E0,2.921354E1,0E0,9.387642E0,5.9753914E0,0E0,0E0,0E0,0E0,6.779785E0,0E0,0E0,0E0,0E0,0E0,0E0,0E0,0E0,0E0,0E0,0E0,0E0,0E0,0E0,0E0,0E0,0E0,0E0],"parents":[2147483647,0,0,1,1,2,2,3,3,4,4,5,5,6,6,7,7,8,8,9,9,10,10,11,11,13,13,14,14,15,15,17,17,19,19,20,20,21,21,22,22,23,23,25,25,27,27,28,28,29,29,32,32,33,33,35,35,37,37,40,40,42,42,43,43,48,48],"right_children":[2,4,6,8,10,12,14,16,18,20,22,24,-1,26,28,30,-1,32,-1,34,36,38,40,42,-1,44,-1,46,48,50,-1,-1,52,54,-1,56,-1,58,-1,-1,60,-1,62,64,-1,-1,-1,-1,66,-1,-1,-1,-1,-1,-1,-1,-1,-1,-1,-1,-1,-1,-1,-1,-1,-1,-1],"split_conditions":[1.8817385E0,1.9428158E1,1.2126309E1,1.4554846E0,1.384213E0,1.5116106E-1,5.998195E0,2.0553935E-1,1.1742375E-1,1.0447648E-1,7.4182856E-3,2.6796144E1,-6.8102084E-2,1.23274736E-1,-7.694171E-2,9.509497E0,-9.522564E-3,2.813739E-1,-7.283914E-2,1.5702385E1,1.292617E-1,4.108768E-1,5.0156313E-1,1.3825008E-1,-5.918866E-2,1.9439313E-1,-6.7756765E-2,1.1818232E-2,-3.2735446E-1,1.8213162E-1,1.9335517E-3,-3.9950382E-2,5.170891E-3,5.847627E-1,-6.2320825E-2,5.6668058E-2,-7.8368075E-2,1.0497748E-1,6.9933824E-2,-7.0780486E-2,1.00345075E-1,-1.5836528E-2,-5.1289823E-2,4.051846E-1,7.6312885E-2,5.925682E-2,-5.988251E-2,2.3870215E-2,-8.085167E-2,6.3386425E-2,1.321639E-2,5.7410814E-2,1.5577505E-2,5.1308084E-2,-4.1837795E-3,-5.9912032E-3,6.800175E-2,-6.766423E-2,5.467653E-2,-7.120913E-2,3.2173783E-2,-1.4907258E-2,5.931435E-2,-6.417224E-2,1.6525844E-2,-1.386465E-2,-6.547879E-2],"split_indices":[19,20,15,21,32,27,45,26,42,25,41,20,0,31,29,45,0,10,0,17,3,10,36,4,0,41,0,24,1,12,0,0,2,37,0,30,0,30,0,0,27,0,30,4,0,0,0,0,8,0,0,0,0,0,0,0,0,0,0,0,0,0,0,0,0,0,0],"split_type":[0,0,0,0,0,0,0,0,0,0,0,0,0,0,0,0,0,0,0,0,0,0,0,0,0,0,0,0,0,0,0,0,0,0,0,0,0,0,0,0,0,0,0,0,0,0,0,0,0,0,0,0,0,0,0,0,0,0,0,0,0,0,0,0,0,0,0],"sum_hessian":[2.253802E3,1.2161476E3,1.0376544E3,9.965734E2,2.1957413E2,5.1979576E1,9.856748E2,9.0916626E2,8.740718E1,1.3499872E2,8.457542E1,4.5751083E1,6.2284894E0,3.160938E1,9.540654E2,9.056743E2,3.491923E0,8.210218E1,5.305E0,1.1172966E2,2.3269058E1,1.8024178E1,6.655124E1,4.22998E1,3.4512858E0,1.7122046E1,1.4487337E1,9.980692E0,9.440848E2,9.018165E2,3.8578126E0,5.6959686E0,7.640621E1,1.07451294E2,4.2783604E0,1.0461643E1,1.2807414E1,7.63E0,1.03941765E1,4.029863E1,2.6252607E1,5.572996E0,3.6726803E1,7.941637E0,9.180408E0,4.810995E0,5.1696973E0,3.3344102E0,9.4075037E2,8.9602277E2,5.79375E0,5.688238E1,1.9523827E1,9.558818E1,1.1863119E1,4.164125E0,6.2975187E0,3.0572195E0,4.5727806E0,1.057921E1,1.5673396E1,4.3586817E0,3.2368122E1,4.860052E0,3.081585E0,7.2681146E0,9.3348224E2],"tree_param":{"num_deleted":"0","num_feature":"48","num_nodes":"67","size_leaf_vector":"1"}},{"base_weights":[1.9957345E-2,9.649656E-1,-1.1636093E0,1.1548921E0,3.0428827E-2,-8.098902E-2,-1.2503635E0,9.7788386E-2,1.187105E0,3.7254015E-1,-1.0462109E0,7.776141E-1,-5.568484E-1,-6.4880353E-1,-6.503078E-2,5.980906E-1,-7.882863E-2,1.2457942E0,8.4870666E-1,6.1093575E-1,-9.3698025E-1,-6.750638E-2,4.6635765E-1,1.0705657E0,-1.2185792E-2,-4.850955E-3,-6.637411E-2,2.6146293E-1,-1.1804757E0,-0E0,5.8715023E-2,1.2511929E0,-6.7358615E-4,-3.1945932E-1,9.6627843E-1,8.78459E-1,-2.6069793E-1,-7.596232E-2,3.0294436E-1,8.068974E-2,-5.056755E-2,-2.3073408E-4,1.2739786E0,4.8974344E-1,-6.278404E-2,8.387172E-1,-6.318434E-2,-6.65987E-2,3.2602932E-2,5.29934E-2,-5.048384E-2,6.278052E-2,4.558443E-3,4.421501E-2,-7.6715104E-2,5.3254128E-2,1.2447854E-2,5.0300162E-2,-1.4832754E-3,2.2298226E-2,-7.151207E-2,6.912302E-2,-5.6300133E-2,7.288443E-2,1.5763868E-2,4.6931587E-2,-5.999877E-2,6.758583E-2,-5.2561462E-2],"categories":[],"categories_nodes":[],"categories_segments":[],"categories_sizes":[],"default_left":[0,0,0,0,0,0,0,0,0,0,0,0,0,0,0,0,0,0,0,0,0,0,0,0,0,0,0,0,0,0,0,0,0,0,0,0,0,0,0,0,0,0,0,0,0,0,0,0,0,0,0,0,0,0,0,0,0,0,0,0,0,0,0,0,0,0,0,0,0],"id":15,"left_children":[1,3,5,7,9,11,13,15,17,19,21,23,25,27,-1,29,-1,31,33,35,37,-1,39,41,-1,43,-1,45,47,49,-1,51,-1,53,55,57,59,-1,61,-1,-1,-1,63,65,-1,67,-1,-1,-1,-1,-1,-1,-1,-1,-1,-1,-1,-1,-1,-1,-1,-1,-1,-1,-1,-1,-1,-1,-1],"loss_changes":[2.4300962E3,2.142821E2,9.035852E1,3.3942627E1,7.589457E1,3.011993E1,2.5951538E1,2.670474E1,1.807898E1,4.9399048E1,2.3549713E1,8.204052E0,2.0041685E1,3.475395E1,0E0,8.567905E0,0E0,5.7679443E0,2.0612091E1,3.1321255E1,1.8222368E1,0E0,1.6949203E1,4.655031E0,0E0,1.8460274E1,0E0,2.4719816E1,1.3446648E1,1.493471E1,0E0,3.9747314E0,0E0,2.2112516E1,9.115486E0,1.1957832E1,2.7129541E1,0E0,1.4827647E1,0E0,0E0,0E0,2.4398975E0,1.7214417E1,0E0,2.1015354E1,0E0,0E0,0E0,0E0,0E0,0E0,0E0,0E0,0E0,0E0,0E0,0E0,0E0,0E0,0E0,0E0,0E0,0E0,0E0,0E0,0E0,0E0,0E0],"parents":[2147483647,0,0,1,1,2,2,3,3,4,4,5,5,6,6,7,7,8,8,9,9,10,10,11,11,12,12,13,13,15,15,17,17,18,18,19,19,20,20,22,22,23,23,25,25,27,27,28,28,29,29,31,31,33,33,34,34,35,35,36,36,38,38,42,42,43,43,45,45],"right_children":[2,4,6,8,10,12,14,16,18,20,22,24,26,28,-1,30,-1,32,34,36,38,-1,40,42,-1,44,-1,46,48,50,-1,52,-1,54,56,58,60,-1,62,-1,-1,-1,64,66,-1,68,-1,-1,-1,-1,-1,-1,-1,-1,-1,-1,-1,-1,-1,-1,-1,-1,-1,-1,-1,-1,-1,-1,-1],"split_conditions":[1.6053644E1,9.6385103E-1,1.384213E0,6.974343E-1,2.6796144E1,1.1024827E0,5.272318E-1,4.1163463E-2,1.0496213E1,1.3076286E-1,1.5684761E1,7.529694E-2,1.0728082E-1,2.3833932E-1,-6.503078E-2,3.3851147E-1,-7.882863E-2,2.6885657E0,4.5679275E-2,6.7636825E-2,1.7898208E-1,-6.750638E-2,1.758327E0,1.8160625E-1,-1.2185792E-2,9.180928E-1,-6.637411E-2,3.97382E-2,1.1363802E0,-8.7456785E-2,5.8715023E-2,1.9397412E-1,-6.7358615E-4,1.1138641E0,9.387067E-2,5.99155E-1,6.550162E-2,-7.596232E-2,1.7166948E-2,8.068974E-2,-5.056755E-2,-2.3073408E-4,1.5146723E-1,3.2554857E-2,-6.278404E-2,1.4921542E-1,-6.318434E-2,-6.65987E-2,3.2602932E-2,5.29934E-2,-5.048384E-2,6.278052E-2,4.558443E-3,4.421501E-2,-7.6715104E-2,5.3254128E-2,1.2447854E-2,5.0300162E-2,-1.4832754E-3,2.2298226E-2,-7.151207E-2,6.912302E-2,-5.6300133E-2,7.288443E-2,1.5763868E-2,4.6931587E-2,-5.999877E-2,6.758583E-2,-5.2561462E-2],"split_indices":[16,18,32,35,20,22,37,5,16,30,16,26,23,3,0,13,0,21,34,6,1,0,19,3,0,33,0,34,35,30,0,25,0,21,6,37,23,0,12,0,0,0,30,11,0,28,0,0,0,0,0,0,0,0,0,0,0,0,0,0,0,0,0,0,0,0,0,0,0],"split_type":[0,0,0,0,0,0,0,0,0,0,0,0,0,0,0,0,0,0,0,0,0,0,0,0,0,0,0,0,0,0,0,0,0,0,0,0,0,0,0,0,0,0,0,0,0,0,0,0,0,0,0,0,0,0,0,0,0,0,0,0,0,0,0,0,0,0,0,0,0],"sum_hessian":[2.170691E3,1.2071344E3,9.635565E2,1.0029595E3,2.0417485E2,7.1713806E1,8.918427E2,2.9870327E1,9.730892E2,1.5550781E2,4.866705E1,2.5271545E1,4.6442257E1,6.998347E1,8.2185925E2,2.3539268E1,6.3310585E0,8.2673047E2,1.463587E2,1.3207385E2,2.3433954E1,4.0669025E1,7.998022E0,1.9677177E1,5.594368E0,2.7721601E1,1.8720655E1,2.592237E1,4.4061096E1,1.1960489E1,1.1578779E1,8.232867E2,3.4437716E0,1.31486845E1,1.3321002E2,1.01139E2,3.0934853E1,1.5847417E1,7.586538E0,4.4883833E0,3.5096388E0,3.2077374E0,1.646944E1,2.0244987E1,7.476613E0,1.9178965E1,6.7434072E0,4.099934E1,3.0617545E0,5.7652664E0,6.195223E0,8.1999554E2,3.291162E0,6.69979E0,6.4488945E0,1.16534325E2,1.66757E1,8.8685616E1,1.2453383E1,1.9615776E1,1.1319077E1,4.3800716E0,3.2064664E0,1.3296687E1,3.172753E0,1.639358E1,3.8514092E0,1.5350094E1,3.82887E0],"tree_param":{"num_deleted":"0","num_feature":"48","num_nodes":"69","size_leaf_vector":"1"}},{"base_weights":[3.2730643E-2,9.6880215E-1,-1.1135463E0,1.1088068E0,9.970392E-3,-4.3131047E-1,-1.2445337E0,1.1747968E0,3.9526936E-1,7.0307815E-1,-5.648895E-1,-5.6716863E-2,-6.591169E-2,-7.505963E-2,-1.2628753E0,1.2302394E0,9.1163146E-1,6.1099696E-1,-7.6398395E-2,8.5157436E-1,-6.325885E-2,-1.3095382E-1,-6.882906E-2,2.8087518E-1,-8.677252E-1,-5.6968022E-2,5.2261423E-2,1.7192371E-2,-1.270755E0,1.2378727E0,-1.736628E-2,9.626477E-1,-1.0532745E-1,7.470389E-1,-6.59746E-2,1.069862E0,-1.4905296E-1,-6.4699996E-1,5.2775484E-1,-7.397351E-1,5.9548706E-1,-6.538498E-2,6.086743E-2,1.5094149E-2,-1.2788228E0,6.218622E-2,-7.026039E-3,5.5171132E-2,3.282314E-2,6.0321778E-2,-7.492653E-2,-1.7387988E-2,4.6062317E-2,-1.2646484E-2,5.9077736E-2,-7.454356E-2,3.8591485E-2,4.8373464E-2,-6.679953E-2,4.568568E-2,-5.3822942E-2,3.7247624E-2,-7.083251E-2,4.1877132E-2,-5.7428163E-2,-6.447648E-2,-3.4748185E-2],"categories":[],"categories_nodes":[],"categories_segments":[],"categories_sizes":[],"default_left":[0,0,0,0,0,0,0,0,0,0,0,0,0,0,0,0,0,0,0,0,0,0,0,0,0,0,0,0,0,0,0,0,0,0,0,0,0,0,0,0,0,0,0,0,0,0,0,0,0,0,0,0,0,0,0,0,0,0,0,0,0,0,0,0,0,0,0],"id":16,"left_children":[1,3,5,7,9,11,13,15,17,19,21,23,-1,25,27,29,31,33,-1,35,-1,37,-1,39,41,-1,-1,-1,43,45,-1,47,49,51,-1,53,55,57,59,61,63,-1,-1,-1,65,-1,-1,-1,-1,-1,-1,-1,-1,-1,-1,-1,-1,-1,-1,-1,-1,-1,-1,-1,-1,-1,-1],"loss_changes":[2.2935076E3,1.5783301E2,8.515918E1,4.771936E1,6.0583572E1,5.17545E1,1.7047607E1,1.2366211E1,3.757852E1,2.1201115E1,2.8913202E1,3.0718752E1,0E0,1.739691E1,1.0567139E1,9.821777E0,8.88205E0,2.20372E1,0E0,1.4404938E1,0E0,1.914746E1,0E0,2.5827961E1,3.1859615E1,0E0,0E0,0E0,1.0497437E1,6.4882812E0,0E0,5.986618E0,1.7944168E1,1.4828907E1,0E0,8.281017E0,1.6544584E1,3.640864E1,1.6293373E1,2.0229076E1,2.6724043E1,0E0,0E0,0E0,3.8154297E0,0E0,0E0,0E0,0E0,0E0,0E0,0E0,0E0,0E0,0E0,0E0,0E0,0E0,0E0,0E0,0E0,0E0,0E0,0E0,0E0,0E0,0E0],"parents":[2147483647,0,0,1,1,2,2,3,3,4,4,5,5,6,6,7,7,8,8,9,9,10,10,11,11,13,13,14,14,15,15,16,16,17,17,19,19,21,21,23,23,24,24,28,28,29,29,31,31,32,32,33,33,35,35,36,36,37,37,38,38,39,39,40,40,44,44],"right_children":[2,4,6,8,10,12,14,16,18,20,22,24,-1,26,28,30,32,34,-1,36,-1,38,-1,40,42,-1,-1,-1,44,46,-1,48,50,52,-1,54,56,58,60,62,64,-1,-1,-1,66,-1,-1,-1,-1,-1,-1,-1,-1,-1,-1,-1,-1,-1,-1,-1,-1,-1,-1,-1,-1,-1,-1],"split_conditions":[1.4647149E0,1.8782351E0,1.6146133E1,1.3176955E0,1.1676624E0,1.3476118E-1,-8.236813E-2,3.241172E-1,1.2638852E-1,1.4094515E-1,1.1594726E0,2.7288759E0,-6.591169E-2,2.3977764E1,-2.9413837E-1,1.6575468E-1,1.3157383E-1,1.2682877E-1,-7.6398395E-2,6.839986E-2,-6.325885E-2,1.2385401E-1,-6.882906E-2,1.0531178E0,2.7713093E-1,-5.6968022E-2,5.2261423E-2,1.7192371E-2,-1.4694919E-1,1.8323398E0,-1.736628E-2,-1.1902644E-3,-6.307012E-2,8.660688E-1,-6.59746E-2,2.7684703E-1,2.3147815E-1,-1.2061076E-1,1.5988963E1,-3.5978038E-2,3.0335741E1,-6.538498E-2,6.086743E-2,1.5094149E-2,4.216892E-1,6.218622E-2,-7.026039E-3,5.5171132E-2,3.282314E-2,6.0321778E-2,-7.492653E-2,-1.7387988E-2,4.6062317E-2,-1.2646484E-2,5.9077736E-2,-7.454356E-2,3.8591485E-2,4.8373464E-2,-6.679953E-2,4.568568E-2,-5.3822942E-2,3.7247624E-2,-7.083251E-2,4.1877132E-2,-5.7428163E-2,-6.447648E-2,-3.4748185E-2],"split_indices":[18,21,17,32,22,30,30,18,26,25,33,22,0,15,1,25,42,27,0,30,0,42,0,33,26,0,0,0,25,19,0,26,8,43,0,10,4,6,17,29,20,0,0,0,42,0,0,0,0,0,0,0,0,0,0,0,0,0,0,0,0,0,0,0,0,0,0],"split_type":[0,0,0,0,0,0,0,0,0,0,0,0,0,0,0,0,0,0,0,0,0,0,0,0,0,0,0,0,0,0,0,0,0,0,0,0,0,0,0,0,0,0,0,0,0,0,0,0,0,0,0,0,0,0,0,0,0,0,0,0,0,0,0,0,0,0,0],"sum_hessian":[2.135486E3,1.175661E3,9.598251E2,1.0256405E3,1.5002052E2,1.554153E2,8.044098E2,9.380961E2,8.7544334E1,6.7992714E1,8.202781E1,1.1009372E2,4.5321583E1,1.2584067E1,7.918257E2,7.7150397E2,1.6659218E2,7.9375206E1,8.169133E0,6.379762E1,4.1950984E0,5.4289055E1,2.773875E1,7.81099E1,3.1983822E1,6.490333E0,6.0937347E0,3.5943248E0,7.882314E2,7.680662E2,3.4377093E0,1.587787E2,7.8134704E0,7.477091E1,4.604289E0,5.239775E1,1.1399867E1,3.0536057E1,2.3752996E1,1.801137E1,6.009853E1,2.6758305E1,5.2255173E0,3.77395E0,7.844574E2,7.649889E2,3.0773218E0,1.0676218E2,5.2016533E1,4.0564346E0,3.7570357E0,1.0048887E1,6.472202E1,3.9116542E0,4.84861E1,4.4318504E0,6.968016E0,8.969367E0,2.156669E1,1.9543726E1,4.2092714E0,5.5625997E0,1.244877E1,5.328083E1,6.8177013E0,7.689761E2,1.5481318E1],"tree_param":{"num_deleted":"0","num_feature":"48","num_nodes":"67","size_leaf_vector":"1"}},{"base_weights":[4.427739E-2,9.657151E-1,-1.085434E0,1.1699146E0,3.0479535E-1,-2.7090868E-1,-1.2208514E0,1.1858517E0,-7.0063245E-1,4.85934E-1,-8.512169E-1,4.6982706E-2,-6.455058E-2,2.3936776E-2,-1.2389634E0,1.2208575E0,7.8597105E-1,1.4845624E-2,-6.979086E-2,5.6654704E-1,-6.526871E-2,2.4734417E-1,-6.632827E-2,-2.8605986E-1,1.0182788E0,-5.548614E-2,6.050819E-2,5.7038818E-2,-1.2561086E0,1.2264457E0,2.0823069E-2,1.012168E0,-0E0,6.51116E-1,-6.0431904E-1,8.990221E-1,-5.7980716E-2,3.7524822E-1,-8.420258E-1,-2.5335555E-3,1.2455373E0,-5.5464596E-2,5.9727162E-2,2.16372E-2,-1.2642183E0,6.1506297E-2,2.3070795E-2,5.922676E-2,-6.3010625E-4,5.4042067E-2,-9.8476335E-2,3.700725E-2,-2.1086363E-2,-7.4254565E-2,4.369927E-2,1.2094024E-2,6.3985534E-2,3.79231E-2,-5.8965214E-2,2.5631292E-2,-6.748409E-2,1.4741996E-2,7.246448E-2,1.5048519E-2,-6.361488E-2],"categories":[],"categories_nodes":[],"categories_segments":[],"categories_sizes":[],"default_left":[0,0,0,0,0,0,0,0,0,0,0,0,0,0,0,0,0,0,0,0,0,0,0,0,0,0,0,0,0,0,0,0,0,0,0,0,0,0,0,0,0,0,0,0,0,0,0,0,0,0,0,0,0,0,0,0,0,0,0,0,0,0,0,0,0],"id":17,"left_children":[1,3,5,7,9,11,13,15,17,19,21,23,-1,25,27,29,31,-1,-1,33,-1,35,-1,37,39,-1,-1,41,43,45,-1,47,49,51,53,55,-1,57,59,-1,61,-1,-1,-1,63,-1,-1,-1,-1,-1,-1,-1,-1,-1,-1,-1,-1,-1,-1,-1,-1,-1,-1,-1,-1],"loss_changes":[2.1567737E3,1.5350854E2,1.0218152E2,2.6855225E1,5.7087833E1,4.366169E1,1.813501E1,1.0939941E1,6.02832E0,3.457871E1,1.974513E1,3.371789E1,0E0,1.7949818E1,1.7664062E1,2.8885498E0,1.2818192E1,0E0,0E0,2.2725693E1,0E0,1.1970342E1,0E0,2.8850899E1,6.650011E0,0E0,0E0,1.6122694E1,1.1260864E1,1.4782715E0,0E0,1.0076622E1,3.8913963E1,2.0483986E1,2.1707922E1,1.7339773E0,0E0,2.2297918E1,2.9992592E1,0E0,3.673645E0,0E0,0E0,0E0,1.0252441E1,0E0,0E0,0E0,0E0,0E0,0E0,0E0,0E0,0E0,0E0,0E0,0E0,0E0,0E0,0E0,0E0,0E0,0E0,0E0,0E0],"parents":[2147483647,0,0,1,1,2,2,3,3,4,4,5,5,6,6,7,7,8,8,9,9,10,10,11,11,13,13,14,14,15,15,16,16,19,19,21,21,23,23,24,24,27,27,28,28,29,29,31,31,32,32,33,33,34,34,35,35,37,37,38,38,40,40,44,44],"right_children":[2,4,6,8,10,12,14,16,18,20,22,24,-1,26,28,30,32,-1,-1,34,-1,36,-1,38,40,-1,-1,42,44,46,-1,48,50,52,54,56,-1,58,60,-1,62,-1,-1,-1,64,-1,-1,-1,-1,-1,-1,-1,-1,-1,-1,-1,-1,-1,-1,-1,-1,-1,-1,-1,-1],"split_conditions":[1.4647149E0,7.667762E-1,1.6068094E1,2.8260143E0,1.6235195E1,1.3922527E-1,-8.236813E-2,5.815503E-1,-1.34019805E-2,1.7968214E0,9.366326E-1,4.845611E-1,-6.455058E-2,2.3977764E1,1.3924076E1,3.4605205E-1,7.371321E-2,1.4845624E-2,-6.979086E-2,1.7554072E-1,-6.526871E-2,2.0263626E-1,-6.632827E-2,2.598042E-2,-3.4859727E-4,-5.548614E-2,6.050819E-2,1.8168236E-1,-1.4694919E-1,1.7728218E-1,2.0823069E-2,6.183991E-2,1.7670086E-2,1.9442324E-1,1.5071316E0,1.5445745E-1,-5.7980716E-2,9.826502E0,1.20510794E-1,-2.5335555E-3,9.7088933E-1,-5.5464596E-2,5.9727162E-2,2.16372E-2,-2.6754725E-1,6.1506297E-2,2.3070795E-2,5.922676E-2,-6.3010625E-4,5.4042067E-2,-9.8476335E-2,3.700725E-2,-2.1086363E-2,-7.4254565E-2,4.369927E-2,1.2094024E-2,6.3985534E-2,3.79231E-2,-5.8965214E-2,2.5631292E-2,-6.748409E-2,1.4741996E-2,7.246448E-2,1.5048519E-2,-6.361488E-2],"split_indices":[18,19,15,21,17,30,30,18,8,32,38,39,0,15,17,3,27,0,0,25,0,14,0,6,30,0,0,6,25,25,0,6,11,24,38,30,0,45,4,0,43,0,0,0,1,0,0,0,0,0,0,0,0,0,0,0,0,0,0,0,0,0,0,0,0],"split_type":[0,0,0,0,0,0,0,0,0,0,0,0,0,0,0,0,0,0,0,0,0,0,0,0,0,0,0,0,0,0,0,0,0,0,0,0,0,0,0,0,0,0,0,0,0,0,0,0,0,0,0,0,0,0,0,0,0,0,0,0,0,0,0,0,0],"sum_hessian":[2.0699155E3,1.140176E3,9.297395E2,8.7034924E2,2.698268E2,1.3307047E2,7.9666907E2,8.634125E2,6.936795E0,2.3385034E2,3.597648E1,1.0210708E2,3.0963387E1,1.1341688E1,7.853274E2,7.917951E2,7.1617355E1,3.0250707E0,3.9117246E0,2.2448743E2,9.362906E0,1.094686E1,2.502962E1,7.648431E1,2.5622768E1,5.789215E0,5.552473E0,1.0147207E1,7.751802E2,7.856879E2,6.1071796E0,5.529917E1,1.6318188E1,2.098591E2,1.4628336E1,7.776854E0,3.1700068E0,3.4999012E1,4.1485294E1,4.551411E0,2.1071356E1,4.978961E0,5.168246E0,3.3953593E0,7.717848E2,7.811913E2,4.496633E0,4.728712E1,8.012049E0,1.0857285E1,5.460903E0,1.9415097E2,1.5708123E1,9.206292E0,5.4220448E0,3.548874E0,4.2279797E0,2.8540024E1,6.45899E0,1.1252323E1,3.0232973E1,4.237457E0,1.68339E1,3.7136893E0,7.680711E2],"tree_param":{"num_deleted":"0","num_feature":"48","num_nodes":"65","size_leaf_vector":"1"}},{"base_weights":[2.716781E-2,9.797532E-1,-1.0176895E0,1.1433421E0,2.690664E-1,1.2891917E-1,-1.1679177E0,-2.1250972E-1,1.1593192E0,-1.8874384E-1,7.394189E-1,3.3874312E-1,-6.352065E-2,4.200799E-1,-1.1939046E0,-8.6214416E-2,3.955449E-2,1.1967925E0,7.5830394E-1,9.067513E-1,-4.1702357E-1,9.749438E-1,-1.7275435E-1,5.5028933E-1,-7.410859E-1,-6.2238544E-2,9.927796E-1,2.7437583E-1,-1.2151521E0,1.2033752E0,1.0258677E-2,-2.7643678E-1,1.0145627E0,6.314119E-2,-1.9329894E-2,3.0938918E-3,-1.0555359E0,1.051043E0,-9.421314E-3,-7.505115E-2,5.5570084E-1,6.501437E-1,-5.6342322E-2,3.9519936E-2,-6.687605E-2,9.501877E-3,6.7028396E-2,6.0899734E-2,-5.534133E-2,-1.2449526E0,-6.817032E-1,6.038816E-2,6.8443613E-3,1.693738E-2,-9.5959105E-2,5.4223605E-2,5.908768E-3,-7.702335E-2,1.2661286E-2,-6.3464227E-3,-7.282845E-2,5.6623608E-2,7.934975E-3,6.4129904E-2,-6.0480207E-2,2.0350369E-2,6.509485E-2,2.8133703E-2,-6.264019E-2,3.9759364E-2,-5.6158602E-2],"categories":[],"categories_nodes":[],"categories_segments":[],"categories_sizes":[],"default_left":[0,0,0,0,0,0,0,0,0,0,0,0,0,0,0,0,0,0,0,0,0,0,0,0,0,0,0,0,0,0,0,0,0,0,0,0,0,0,0,0,0,0,0,0,0,0,0,0,0,0,0,0,0,0,0,0,0,0,0,0,0,0,0,0,0,0,0,0,0,0,0],"id":18,"left_children":[1,3,5,7,9,11,13,15,17,19,21,23,-1,25,27,-1,-1,29,31,33,35,37,39,41,43,-1,45,47,49,51,-1,53,55,-1,-1,57,59,61,-1,-1,63,65,-1,-1,-1,-1,-1,-1,-1,67,69,-1,-1,-1,-1,-1,-1,-1,-1,-1,-1,-1,-1,-1,-1,-1,-1,-1,-1,-1,-1],"loss_changes":[2.0135566E3,1.2258728E2,1.6643622E2,1.8967407E1,4.3140686E1,3.339294E1,3.5786865E1,1.7822735E1,1.1670898E1,2.5776463E1,2.1449867E1,2.294751E1,0E0,1.4954475E1,2.6625732E1,0E0,0E0,4.6740723E0,2.0401302E1,8.767235E0,2.2901688E1,7.249115E0,2.1261263E1,1.4623102E1,1.6207314E1,0E0,2.7543106E0,1.794728E1,1.2121826E1,3.303711E0,0E0,1.6689972E1,3.5671654E0,0E0,0E0,2.039698E1,1.2250549E1,5.073494E0,0E0,0E0,1.9847178E1,1.1856251E1,0E0,0E0,0E0,0E0,0E0,0E0,0E0,1.1883789E1,3.10466E1,0E0,0E0,0E0,0E0,0E0,0E0,0E0,0E0,0E0,0E0,0E0,0E0,0E0,0E0,0E0,0E0,0E0,0E0,0E0,0E0],"parents":[2147483647,0,0,1,1,2,2,3,3,4,4,5,5,6,6,7,7,8,8,9,9,10,10,11,11,13,13,14,14,17,17,18,18,19,19,20,20,21,21,22,22,23,23,24,24,26,26,27,27,28,28,29,29,31,31,32,32,35,35,36,36,37,37,40,40,41,41,49,49,50,50],"right_children":[2,4,6,8,10,12,14,16,18,20,22,24,-1,26,28,-1,-1,30,32,34,36,38,40,42,44,-1,46,48,50,52,-1,54,56,-1,-1,58,60,62,-1,-1,64,66,-1,-1,-1,-1,-1,-1,-1,68,70,-1,-1,-1,-1,-1,-1,-1,-1,-1,-1,-1,-1,-1,-1,-1,-1,-1,-1,-1,-1],"split_conditions":[1.6691767E0,1.0624377E1,7.2179375E0,6.7157364E-1,3.194026E-1,2.8310227E0,9.712979E0,6.2874717E-1,1.1024827E0,-8.0377E-3,8.469457E-2,5.9305835E-1,-6.352065E-2,2.6107287E-2,-7.694171E-2,-8.6214416E-2,3.955449E-2,1.8497184E-1,3.8898316E-1,1.6367075E-1,2.7107276E-2,1.5531081E-1,4.976207E-2,1.6111395E-1,-7.9008505E-2,-6.2238544E-2,1.0991281E0,1.1818232E-2,3.194026E-1,2.792915E0,1.0258677E-2,2.8622491E-2,5.394247E-1,6.314119E-2,-1.9329894E-2,9.1587895E-1,1.0125118E0,5.633235E-1,-9.421314E-3,-7.505115E-2,4.5473143E-2,5.6826866E-1,-5.6342322E-2,3.9519936E-2,-6.687605E-2,9.501877E-3,6.7028396E-2,6.0899734E-2,-5.534133E-2,-2.9413837E-1,-2.7684305E-2,6.038816E-2,6.8443613E-3,1.693738E-2,-9.5959105E-2,5.4223605E-2,5.908768E-3,-7.702335E-2,1.2661286E-2,-6.3464227E-3,-7.282845E-2,5.6623608E-2,7.934975E-3,6.4129904E-2,-6.0480207E-2,2.0350369E-2,6.509485E-2,2.8133703E-2,-6.264019E-2,3.9759364E-2,-5.6158602E-2],"split_indices":[19,15,45,35,13,22,16,36,22,41,23,37,0,7,29,0,0,24,39,14,2,9,7,0,5,0,33,24,13,21,0,29,37,0,0,22,44,37,0,0,9,37,0,0,0,0,0,0,0,1,8,0,0,0,0,0,0,0,0,0,0,0,0,0,0,0,0,0,0,0,0],"split_type":[0,0,0,0,0,0,0,0,0,0,0,0,0,0,0,0,0,0,0,0,0,0,0,0,0,0,0,0,0,0,0,0,0,0,0,0,0,0,0,0,0,0,0,0,0,0,0,0,0,0,0,0,0,0,0,0,0,0,0,0,0,0,0,0,0,0,0,0,0,0,0],"sum_hessian":[2.021035E3,1.057281E3,9.63754E2,8.588401E2,1.9844093E2,1.1158261E2,8.521714E2,9.786403E0,8.490537E2,1.00756905E2,9.768403E1,9.775417E1,1.3828439E1,1.3414762E1,8.3875665E2,3.6578758E0,6.1285267E0,7.7445056E2,7.4603134E1,1.678706E1,8.396985E1,7.767024E1,2.001379E1,8.22281E1,1.5526071E1,3.0884485E0,1.0326313E1,1.1727453E1,8.270292E2,7.6903107E2,5.419501E0,1.4715365E1,5.9887768E1,1.324225E1,3.5448093E0,5.115216E1,3.2817684E1,7.307285E1,4.597384E0,6.7615213E0,1.325227E1,7.824168E1,3.9864292E0,4.2136602E0,1.131241E1,3.6758668E0,6.650446E0,7.0806284E0,4.6468253E0,7.818319E2,4.519726E1,7.6565466E2,3.376404E0,1.1239321E1,3.476045E0,5.525689E1,4.630878E0,6.3580837E0,4.4794075E1,1.0370424E1,2.244726E1,6.6613045E1,6.4598083E0,9.6208105E0,3.6314592E0,5.8278725E1,1.9962948E1,3.0204182E0,7.788115E2,1.0164657E1,3.5032604E1],"tree_param":{"num_deleted":"0","num_feature":"48","num_nodes":"71","size_leaf_vector":"1"}},{"base_weights":[3.8378946E-2,9.212457E-1,-1.0453441E0,1.1428677E0,3.0856827E-1,-2.6977453E-1,-1.1844672E0,1.1531522E0,-2.504473E-2,6.478801E-1,-3.1575722E-1,9.678035E-2,-1.1088818E0,2.5937572E-2,-1.1945741E0,1.1641492E0,1.513944E-1,7.521445E-1,-9.8445386E-1,3.616536E-1,-8.6861706E-1,9.563358E-1,-2.0289208E-1,2.3702584E-2,-6.295749E-2,-4.2060772E-1,-1.2203106E0,1.1828959E0,6.082694E-1,5.0421424E-2,-4.750378E-2,8.121882E-1,-5.6954872E-2,-7.91082E-2,2.2890672E-2,-7.521466E-2,5.7821256E-1,4.505297E-2,-1.0651276E0,-1.391611E-2,1.2879716E0,-8.669293E-1,3.2723606E-1,-8.387795E-1,5.918451E-2,1.7330894E-2,-1.228671E0,1.237541E-2,5.962913E-2,4.625685E-2,-4.9902458E-2,4.564534E-2,-6.042397E-4,4.1473415E-2,-3.037991E-2,-2.7964313E-2,-7.2969034E-2,7.156204E-2,3.2264423E-2,5.5972645E-3,-6.313681E-2,-6.1533492E-2,3.1191314E-2,-6.1537296E-2,5.1595356E-2,-6.202912E-2,-2.8350374E-2],"categories":[],"categories_nodes":[],"categories_segments":[],"categories_sizes":[],"default_left":[0,0,0,0,0,0,0,0,0,0,0,0,0,0,0,0,0,0,0,0,0,0,0,0,0,0,0,0,0,0,0,0,0,0,0,0,0,0,0,0,0,0,0,0,0,0,0,0,0,0,0,0,0,0,0,0,0,0,0,0,0,0,0,0,0,0,0],"id":19,"left_children":[1,3,5,7,9,11,13,15,-1,17,19,21,23,-1,25,27,29,31,33,35,37,39,41,-1,-1,43,45,47,49,-1,-1,51,-1,-1,-1,-1,53,-1,55,-1,57,59,61,63,-1,-1,65,-1,-1,-1,-1,-1,-1,-1,-1,-1,-1,-1,-1,-1,-1,-1,-1,-1,-1,-1,-1],"loss_changes":[1.8666302E3,1.4548718E2,9.4035095E1,1.3981934E1,6.105462E1,4.1612953E1,1.3463745E1,8.334473E0,0E0,3.2446663E1,3.8436516E1,2.461745E1,1.0449165E1,0E0,1.4026611E1,7.1853027E0,1.0183699E1,2.0862854E1,1.0809683E1,1.948935E1,2.057217E1,1.0571716E1,2.5270721E1,0E0,0E0,1.8003605E1,9.864746E0,6.349121E0,1.4933846E1,0E0,0E0,1.4304581E1,0E0,0E0,0E0,0E0,1.311781E1,0E0,9.1980095E0,0E0,6.8354416E-1,1.2577347E1,1.9201984E1,1.6533321E1,0E0,0E0,4.713745E0,0E0,0E0,0E0,0E0,0E0,0E0,0E0,0E0,0E0,0E0,0E0,0E0,0E0,0E0,0E0,0E0,0E0,0E0,0E0,0E0],"parents":[2147483647,0,0,1,1,2,2,3,3,4,4,5,5,6,6,7,7,9,9,10,10,11,11,12,12,14,14,15,15,16,16,17,17,18,18,19,19,20,20,21,21,22,22,25,25,26,26,27,27,28,28,31,31,36,36,38,38,40,40,41,41,42,42,43,43,46,46],"right_children":[2,4,6,8,10,12,14,16,-1,18,20,22,24,-1,26,28,30,32,34,36,38,40,42,-1,-1,44,46,48,50,-1,-1,52,-1,-1,-1,-1,54,-1,56,-1,58,60,62,64,-1,-1,66,-1,-1,-1,-1,-1,-1,-1,-1,-1,-1,-1,-1,-1,-1,-1,-1,-1,-1,-1,-1],"split_conditions":[1.4647149E0,4.5158106E-1,1.6956892E1,1.7728218E-1,5.0537154E-2,2.7288759E0,1.3878416E1,1.9722067E-1,-2.504473E-2,1.9266683E-1,9.896352E-1,1.3888757E0,-9.2718676E-2,2.5937572E-2,1.384213E0,1.2609053E0,-1.5539376E-1,1.7453614E0,1.6407274E-1,1.1435101E0,-8.085167E-2,1.2010869E0,2.544737E-1,2.3702584E-2,-6.295749E-2,2.8902397E-1,-1.4694919E-1,1.8120828E-1,7.265332E-2,5.0421424E-2,-4.750378E-2,1.20394E-1,-5.6954872E-2,-7.91082E-2,2.2890672E-2,-7.521466E-2,1.5088743E-1,4.505297E-2,2.3504784E-2,-1.391611E-2,1.3996012E1,-3.2377194E-3,7.680898E-2,2.4300571E1,5.918451E-2,1.7330894E-2,4.216892E-1,1.237541E-2,5.962913E-2,4.625685E-2,-4.9902458E-2,4.564534E-2,-6.042397E-4,4.1473415E-2,-3.037991E-2,-2.7964313E-2,-7.2969034E-2,7.156204E-2,3.2264423E-2,5.5972645E-3,-6.313681E-2,-6.1533492E-2,3.1191314E-2,-6.1537296E-2,5.1595356E-2,-6.202912E-2,-2.8350374E-2],"split_indices":[18,18,16,25,26,22,15,29,0,28,38,21,6,0,32,38,2,32,25,44,8,33,13,0,0,7,25,13,42,0,0,42,0,0,0,0,31,0,11,0,16,6,42,15,0,0,42,0,0,0,0,0,0,0,0,0,0,0,0,0,0,0,0,0,0,0,0],"split_type":[0,0,0,0,0,0,0,0,0,0,0,0,0,0,0,0,0,0,0,0,0,0,0,0,0,0,0,0,0,0,0,0,0,0,0,0,0,0,0,0,0,0,0,0,0,0,0,0,0,0,0,0,0,0,0,0,0,0,0,0,0,0,0,0,0,0,0],"sum_hessian":[1.9489506E3,1.0741361E3,8.7481445E2,7.8804895E2,2.8608713E2,1.3361401E2,7.4120044E2,7.8350604E2,4.542876E0,1.854307E2,1.0065643E2,9.352439E1,4.0089622E1,4.017108E0,7.371833E2,7.747393E2,8.766744E0,1.7486197E2,1.05687275E1,4.530719E1,5.5349243E1,2.3696823E1,6.982757E1,3.2312462E0,3.6858376E1,2.4407587E1,7.127757E2,7.481989E2,2.654042E1,5.029015E0,3.7377286E0,1.7008548E2,4.776496E0,7.4525495E0,3.1161778E0,4.0450997E0,4.1262093E1,5.122688E0,5.0226555E1,4.987588E0,1.8709236E1,3.080039E1,3.902718E1,1.9788954E1,4.6186333E0,3.5046856E0,7.0927106E2,8.046767E0,7.4015216E2,2.2573765E1,3.9666555E0,1.5157784E2,1.8507635E1,3.4365406E1,6.896684E0,2.317036E1,2.7056194E1,1.4168232E1,4.541004E0,9.001989E0,2.17984E1,5.684024E0,3.3343155E1,1.6687876E1,3.1010783E0,6.957205E2,1.3550543E1],"tree_param":{"num_deleted":"0","num_feature":"48","num_nodes":"67","size_leaf_vector":"1"}},{"base_weights":[1.5700037E-2,8.87128E-1,-1.0378332E0,1.0399678E0,6.990656E-2,-3.1363574E-1,-1.1696904E0,1.0612818E0,-8.0606097E-1,-7.012927E-2,2.592094E-1,-6.105414E-1,8.424716E-1,5.420067E-2,-1.1893908E0,1.1622987E0,7.9694283E-1,-7.26885E-2,2.785038E-2,4.0581778E-1,-6.1926723E-2,-1.9590692E-1,-1.1258821E0,-5.5133194E-2,1.1782341E0,6.137224E-2,-5.4301407E-2,-1.2048204E0,-8.802215E-2,1.1780936E-4,1.1695136E0,8.724753E-1,-4.3071252E-1,5.560318E-1,-7.13884E-1,1.3982843E-1,-6.317466E-2,-6.253802E-2,2.456594E-2,7.0325896E-2,-7.252896E-4,-1.2166597E0,-6.016046E-1,-5.5774428E-2,5.0745416E-2,5.8767237E-2,7.990566E-3,-3.144208E-2,4.538677E-2,-8.128694E-2,5.3679008E-2,3.3484902E-2,-3.571232E-2,-6.8312496E-2,3.836467E-2,1.9707616E-2,-5.8146056E-2,-2.201862E-2,-6.128497E-2,5.931821E-2,-5.7423323E-2],"categories":[],"categories_nodes":[],"categories_segments":[],"categories_sizes":[],"default_left":[0,0,0,0,0,0,0,0,0,0,0,0,0,0,0,0,0,0,0,0,0,0,0,0,0,0,0,0,0,0,0,0,0,0,0,0,0,0,0,0,0,0,0,0,0,0,0,0,0,0,0,0,0,0,0,0,0,0,0,0,0],"id":20,"left_children":[1,3,5,7,9,11,13,15,17,-1,19,21,23,25,27,29,31,-1,-1,33,-1,35,37,-1,39,-1,-1,41,43,-1,45,47,49,51,53,55,-1,-1,-1,-1,-1,57,59,-1,-1,-1,-1,-1,-1,-1,-1,-1,-1,-1,-1,-1,-1,-1,-1,-1,-1],"loss_changes":[1.7129402E3,1.27368225E2,8.0136475E1,3.4723816E1,4.5426323E1,4.565543E1,1.7394043E1,2.1596375E1,1.0021601E1,0E0,3.2151966E1,2.2155895E1,1.909562E1,1.7650972E1,1.1708618E1,5.0109863E0,2.2553207E1,0E0,0E0,2.2657444E1,0E0,2.1683962E1,1.0111137E1,0E0,6.627743E0,0E0,0E0,4.035034E0,1.3470223E1,0E0,3.265503E0,1.2523361E1,2.7735909E1,1.7427567E1,1.659304E1,1.5701617E1,0E0,0E0,0E0,0E0,0E0,4.0548096E0,1.6494177E1,0E0,0E0,0E0,0E0,0E0,0E0,0E0,0E0,0E0,0E0,0E0,0E0,0E0,0E0,0E0,0E0,0E0,0E0],"parents":[2147483647,0,0,1,1,2,2,3,3,4,4,5,5,6,6,7,7,8,8,10,10,11,11,12,12,13,13,14,14,15,15,16,16,19,19,21,21,22,22,24,24,27,27,28,28,30,30,31,31,32,32,33,33,34,34,35,35,41,41,42,42],"right_children":[2,4,6,8,10,12,14,16,18,-1,20,22,24,26,28,30,32,-1,-1,34,-1,36,38,-1,40,-1,-1,42,44,-1,46,48,50,52,54,56,-1,-1,-1,-1,-1,58,60,-1,-1,-1,-1,-1,-1,-1,-1,-1,-1,-1,-1,-1,-1,-1,-1,-1,-1],"split_conditions":[1.4647149E0,8.094133E-1,1.6956892E1,1.5608022E1,6.871259E-1,4.845611E-1,-8.236813E-2,7.854648E0,1.5215066E-1,-7.012927E-2,2.93511E1,5.847627E-1,8.1814915E-1,7.633355E-2,1.0359049E0,7.5647515E-1,1.252531E-1,-7.26885E-2,2.785038E-2,5.99155E-1,-6.1926723E-2,3.0608815E-1,4.0460113E-1,-5.5133194E-2,-4.007495E-3,6.137224E-2,-5.4301407E-2,4.216892E-1,1.8489997E-1,1.1780936E-4,2.0560384E-1,3.4493808E-2,1.0585449E0,1.6670086E1,4.5568258E-1,1.7676489E-1,-6.317466E-2,-6.253802E-2,2.456594E-2,7.0325896E-2,-7.252896E-4,1.3924076E1,4.7952485E0,-5.5774428E-2,5.0745416E-2,5.8767237E-2,7.990566E-3,-3.144208E-2,4.538677E-2,-8.128694E-2,5.3679008E-2,3.3484902E-2,-3.571232E-2,-6.8312496E-2,3.836467E-2,1.9707616E-2,-5.8146056E-2,-2.201862E-2,-6.128497E-2,5.931821E-2,-5.7423323E-2],"split_indices":[18,18,16,17,43,39,30,15,42,0,20,37,43,28,35,43,42,0,0,37,0,3,24,0,0,0,0,42,30,0,28,34,35,17,10,29,0,0,0,0,0,17,22,0,0,0,0,0,0,0,0,0,0,0,0,0,0,0,0,0,0],"split_type":[0,0,0,0,0,0,0,0,0,0,0,0,0,0,0,0,0,0,0,0,0,0,0,0,0,0,0,0,0,0,0,0,0,0,0,0,0,0,0,0,0,0,0,0,0,0,0,0,0,0,0,0,0,0,0,0,0,0,0,0,0],"sum_hessian":[1.8638025E3,1.0201994E3,8.436031E2,8.5912726E2,1.6107211E2,1.3057648E2,7.130266E2,8.497949E2,9.3323765E0,1.75582E1,1.435139E2,1.0433905E2,2.6237432E1,1.1187321E1,7.018393E2,6.121045E2,2.3769041E2,6.3308682E0,3.0015085E0,1.3144325E2,1.2070658E1,5.8691254E1,4.5647793E1,3.4822452E0,2.2755188E1,5.51936E0,5.6679606E0,6.919605E2,9.878738E0,3.877665E0,6.082268E2,2.2426321E2,1.3427199E1,1.1641788E2,1.5025371E1,4.523962E1,1.3451636E1,4.2643353E1,3.0044403E0,1.9019558E1,3.7356288E0,6.7748096E2,1.44795475E1,5.155379E0,4.723359E0,6.044729E2,3.7539601E0,4.6948195E0,2.1956839E2,7.4748454E0,5.9523535E0,1.0736246E2,9.055417E0,1.0531854E1,4.4935164E0,3.8498177E1,6.7414403E0,8.498028E0,6.68983E2,3.07466E0,1.1404888E1],"tree_param":{"num_deleted":"0","num_feature":"48","num_nodes":"61","size_leaf_vector":"1"}},{"base_weights":[7.357686E-3,8.678331E-1,-1.0691121E0,1.1161664E0,3.2406673E-1,3.865878E-1,-1.1233727E0,7.9552084E-1,1.1536762E0,5.399427E-1,-5.6939673E-1,-6.9570625E-1,9.712287E-1,3.340727E-1,-1.1575375E0,1.0398855E0,1.6997574E-2,1.1600566E0,7.919766E-3,1.2963243E-2,7.506221E-1,-6.929471E-2,-9.9335715E-2,-6.307556E-2,2.686832E-2,6.848829E-2,2.3636588E-1,6.245364E-2,-5.4391082E-2,3.8035206E-2,-1.1725304E0,5.9128946E-1,1.1800338E0,-9.467761E-2,6.175441E-1,1.1662892E0,1.8552288E-2,3.81856E-1,-1.1725976E0,8.390612E-1,-7.08453E-1,3.5216382E-1,-6.66373E-2,-1.5634215E-3,2.7588416E-2,-1.202762E0,-6.000938E-1,5.1029004E-2,-3.5997313E-3,2.2981655E-2,6.111103E-2,5.4204036E-2,-1.0552421E-2,5.856995E-2,1.3570981E-2,-6.20553E-2,3.0962447E-2,1.542405E-2,-7.5482585E-2,4.624367E-2,5.8569363E-4,5.0552513E-2,-8.0264345E-2,-6.253402E-2,3.0376924E-2,-3.413333E-2,-6.088605E-2,1.5744286E-2,-6.1585873E-2],"categories":[],"categories_nodes":[],"categories_segments":[],"categories_sizes":[],"default_left":[0,0,0,0,0,0,0,0,0,0,0,0,0,0,0,0,0,0,0,0,0,0,0,0,0,0,0,0,0,0,0,0,0,0,0,0,0,0,0,0,0,0,0,0,0,0,0,0,0,0,0,0,0,0,0,0,0,0,0,0,0,0,0,0,0,0,0,0,0],"id":21,"left_children":[1,3,5,7,9,11,13,15,17,19,21,23,25,27,29,31,33,35,-1,37,39,-1,41,-1,-1,-1,43,-1,-1,-1,45,47,49,-1,51,53,-1,55,57,59,61,63,-1,-1,-1,65,67,-1,-1,-1,-1,-1,-1,-1,-1,-1,-1,-1,-1,-1,-1,-1,-1,-1,-1,-1,-1,-1,-1],"loss_changes":[1.6807114E3,1.3567322E2,6.417432E1,7.2074585E0,6.1582245E1,1.9459711E1,3.917798E1,1.4325527E1,3.6013184E0,2.8389526E1,2.3594542E1,8.368365E0,5.2920322E0,2.5463396E1,2.278717E1,2.7521515E0,2.3138401E1,2.4262085E0,0E0,3.29097E1,2.423153E1,0E0,2.3200745E1,0E0,0E0,0E0,7.641978E-1,0E0,0E0,0E0,1.2153809E1,4.6978E0,5.7029724E-1,0E0,6.287251E0,2.314331E0,0E0,2.2885769E1,9.491022E0,1.2187546E1,1.8553476E1,1.3173219E1,0E0,0E0,0E0,4.5446777E0,2.359989E1,0E0,0E0,0E0,0E0,0E0,0E0,0E0,0E0,0E0,0E0,0E0,0E0,0E0,0E0,0E0,0E0,0E0,0E0,0E0,0E0,0E0,0E0],"parents":[2147483647,0,0,1,1,2,2,3,3,4,4,5,5,6,6,7,7,8,8,9,9,10,10,11,11,12,12,13,13,14,14,15,15,16,16,17,17,19,19,20,20,22,22,26,26,30,30,31,31,32,32,34,34,35,35,37,37,38,38,39,39,40,40,41,41,45,45,46,46],"right_children":[2,4,6,8,10,12,14,16,18,20,22,24,26,28,30,32,34,36,-1,38,40,-1,42,-1,-1,-1,44,-1,-1,-1,46,48,50,-1,52,54,-1,56,58,60,62,64,-1,-1,-1,66,68,-1,-1,-1,-1,-1,-1,-1,-1,-1,-1,-1,-1,-1,-1,-1,-1,-1,-1,-1,-1,-1,-1],"split_conditions":[1.4647149E0,3.241172E-1,1.114521E1,9.505799E-1,2.0360796E0,3.8280296E-1,1.0471611E-1,4.3506706E-1,2.1125382E-1,9.801131E-1,3.393384E-1,2.3848767E0,1.3888757E0,5.16276E-1,-1.4499661E-1,1.0286627E-1,5.295589E-1,1.8430647E-1,7.919766E-3,7.519921E-2,1.6828611E-1,-6.929471E-2,2.5371449E1,-6.307556E-2,2.686832E-2,6.848829E-2,1.3866337E-1,6.245364E-2,-5.4391082E-2,3.8035206E-2,3.2783067E-1,-1.188527E-1,2.255139E-1,-9.467761E-2,1.4633355E-1,3.9556172E-1,1.8552288E-2,1.0157572E0,3.0077884E-2,1.5847822E-1,4.4317883E-1,7.357253E-1,-6.66373E-2,-1.5634215E-3,2.7588416E-2,1.2734997E0,2.2534172E-1,5.1029004E-2,-3.5997313E-3,2.2981655E-2,6.111103E-2,5.4204036E-2,